window.characterToIndex = {
  "1": 1,
  "2": 2,
  "3": 3,
  "4": 4,
  "5": 5,
  "a": 6,
  "b": 7,
  "r": 8,
  "e": 9,
  "v": 10,
  "i": 11,
  "t": 12,
  "d": 13,
  " ": 14,
  "w": 15,
  "o": 16,
  "m": 17,
  "|": 18,
  "H": 19,
  "y": 20,
  "p": 21,
  "n": 22,
  "u": 23,
  "s": 24,
  "c": 25,
  "l": 26,
  "A": 27,
  "z": 28,
  "h": 29,
  "x": 30,
  "E": 31,
  "K": 32,
  "f": 33,
  "-": 34,
  "g": 35,
  "C": 36,
  "j": 37,
  "k": 38,
  "D": 39,
  "Z": 40,
  "G": 41,
  "M": 42,
  "B": 43,
  "O": 44,
  "L": 45,
  "N": 46,
  "F": 47,
  "P": 48,
  "T": 49,
  "S": 50,
  "q": 51,
  "R": 52,
  "I": 53,
  "X": 54,
  "U": 55,
  "V": 56,
  "’": 57,
  "J": 58,
  ".": 59,
  "Y": 60,
  "(": 61,
  "W": 62
}

window.indexToCharacter = {
  "1": "1",
  "2": "2",
  "3": "3",
  "4": "4",
  "5": "5",
  "6": "a",
  "7": "b",
  "8": "r",
  "9": "e",
  "10": "v",
  "11": "i",
  "12": "t",
  "13": "d",
  "14": " ",
  "15": "w",
  "16": "o",
  "17": "m",
  "18": "|",
  "19": "H",
  "20": "y",
  "21": "p",
  "22": "n",
  "23": "u",
  "24": "s",
  "25": "c",
  "26": "l",
  "27": "A",
  "28": "z",
  "29": "h",
  "30": "x",
  "31": "E",
  "32": "K",
  "33": "f",
  "34": "-",
  "35": "g",
  "36": "C",
  "37": "j",
  "38": "k",
  "39": "D",
  "40": "Z",
  "41": "G",
  "42": "M",
  "43": "B",
  "44": "O",
  "45": "L",
  "46": "N",
  "47": "F",
  "48": "P",
  "49": "T",
  "50": "S",
  "51": "q",
  "52": "R",
  "53": "I",
  "54": "X",
  "55": "U",
  "56": "V",
  "57": "’",
  "58": "J",
  "59": ".",
  "60": "Y",
  "61": "(",
  "62": "W"
}

window.hidden_sizes = [30, 20, 15]

window.model = {
  "Wil": {
    "n": 63,
    "d": 10,
    "w": {
      "0": 0.08310120049781705,
      "1": 1.2346137915352775,
      "2": 0.2770200481929923,
      "3": 0.8127348948135718,
      "4": 3.115593222561318,
      "5": 4.67835428643699,
      "6": -3.545753130656126,
      "7": 0.27440083229692447,
      "8": 1.3344405996184672,
      "9": 1.2942397797292229,
      "10": -6.710284757884503,
      "11": 5.8764512166247815,
      "12": -3.4261917284605903,
      "13": -1.4241703156441408,
      "14": 0.8474408443181862,
      "15": 2.7460724963512146,
      "16": -0.5162913275555613,
      "17": -0.7897556865648019,
      "18": 4.963043520914182,
      "19": -0.14872039154424788,
      "20": -2.1623498038438957,
      "21": 4.1261637086222125,
      "22": -1.7180487356995238,
      "23": -1.1008721802303978,
      "24": -0.16925297962895397,
      "25": 7.411343675586728,
      "26": 1.4061673461793425,
      "27": -2.3862081447395624,
      "28": -0.38845814190448397,
      "29": -4.362249566626652,
      "30": 0.16130062346302085,
      "31": 4.0380683145219525,
      "32": 3.5313780624366458,
      "33": 3.030991986218588,
      "34": -1.1741310596684946,
      "35": 3.3054261471091126,
      "36": 0.8774792320398275,
      "37": -1.4853371492242566,
      "38": 4.452356724136188,
      "39": 0.40737152681381317,
      "40": -1.1230684527093746,
      "41": 0.7224245396066334,
      "42": 0.9823868999109346,
      "43": -2.500330986479424,
      "44": -1.9917129588492088,
      "45": -1.3593033182891903,
      "46": -4.329720372590531,
      "47": 1.3896884370807618,
      "48": 2.6210677419283632,
      "49": -0.043744914341207634,
      "50": 0.7724168274981266,
      "51": 1.2352827804031623,
      "52": 0.40556330418221365,
      "53": -1.5137294159149348,
      "54": 0.044765440524876944,
      "55": 0.056018445541204206,
      "56": -1.3599209559112428,
      "57": -5.5716960764043355,
      "58": 3.0555165853778696,
      "59": 4.971191462390647,
      "60": 0.9970973443207087,
      "61": -0.1570491509937721,
      "62": -0.09908942593079349,
      "63": 2.7879802639873934,
      "64": -0.31167987739251274,
      "65": 0.5824173406784965,
      "66": 2.379315811452342,
      "67": 0.9003102032875278,
      "68": 2.899365599435614,
      "69": -2.214116370635607,
      "70": -0.8595323292045324,
      "71": 1.111827169716561,
      "72": -2.930872271725229,
      "73": 1.047868088585956,
      "74": -0.5024087946069552,
      "75": 3.0551695044507596,
      "76": -0.955446185638523,
      "77": -1.1301004991294858,
      "78": -4.182974215322629,
      "79": 2.3420625097753973,
      "80": 0.023344641885789243,
      "81": -0.5049647585854036,
      "82": -0.20836672325418384,
      "83": 1.5745592101123376,
      "84": 3.1397043971535132,
      "85": 0.569458922440456,
      "86": 2.3784995740087753,
      "87": -0.36665730302139987,
      "88": -2.6489385344477947,
      "89": -0.7760482331883795,
      "90": 1.386878489939681,
      "91": -0.3092301887305712,
      "92": -2.3446439422717815,
      "93": 0.5623869021196043,
      "94": -0.050399035255997135,
      "95": 0.2131802024482945,
      "96": 0.8729089573027812,
      "97": 0.9205135818405429,
      "98": 1.1816096685912192,
      "99": -0.7402116287564557,
      "100": -0.7474670216924886,
      "101": -0.2491877499533101,
      "102": -0.12114377701314773,
      "103": -4.332122860282788,
      "104": -4.431117717029258,
      "105": -0.2657555609338523,
      "106": 1.0247291167856543,
      "107": -3.4600408244693286,
      "108": -1.878260788409942,
      "109": 1.9365669529913816,
      "110": 1.3496344684632786,
      "111": -5.299620068181819,
      "112": 2.038480776681123,
      "113": -1.3995018338600875,
      "114": -1.3999872272537437,
      "115": 3.506179008964667,
      "116": 5.112198319395851,
      "117": 0.7311433780183518,
      "118": 1.128068199451795,
      "119": -1.6842412897280574,
      "120": 0.8240754233566426,
      "121": 1.62608272331219,
      "122": 0.9523699408442712,
      "123": -2.0498470035456293,
      "124": 0.10578087353280852,
      "125": -0.6615394269312168,
      "126": -0.15690566727173735,
      "127": 0.6537633162143297,
      "128": -0.9700760264415794,
      "129": -0.2960683817987846,
      "130": -1.0652264887019318,
      "131": -0.4128922631456145,
      "132": -4.050639097244325,
      "133": 1.1319788388773004,
      "134": -4.011589734978383,
      "135": -0.19450926668474455,
      "136": 0.26829129903839316,
      "137": -1.8935093413423474,
      "138": -2.790341114318033,
      "139": -3.7676141196449495,
      "140": -0.5003983533745573,
      "141": 1.9853664482234028,
      "142": 6.982756407589794,
      "143": -0.30640673138152696,
      "144": -2.166039733112344,
      "145": -7.3793903113792565,
      "146": 0.08021044945328024,
      "147": 1.3184786834223265,
      "148": 8.932994204732584,
      "149": 5.054283178600693,
      "150": -1.047581523679327,
      "151": -2.082817927103648,
      "152": 1.1008986566515897,
      "153": -2.431171005065834,
      "154": 0.8439555480324816,
      "155": -1.102223078524648,
      "156": -3.2010087898963375,
      "157": 4.855898326954124,
      "158": -4.361856187925308,
      "159": -0.8401496941664436,
      "160": 0.9256174509886772,
      "161": -3.289242469745023,
      "162": -0.5125822751960001,
      "163": -1.8917824753530998,
      "164": 1.307810280204266,
      "165": -1.7507164909361737,
      "166": 0.8003583708821119,
      "167": -0.8385259651932089,
      "168": 2.5574322176611095,
      "169": -1.0657347238797317,
      "170": -1.2547324286053598,
      "171": 1.5414451507985398,
      "172": -2.1567250617114904,
      "173": -3.3887961034959773,
      "174": 1.534061792478664,
      "175": 2.815502607958989,
      "176": -1.0564484344576746,
      "177": 0.4306323445141217,
      "178": -1.9863715618400155,
      "179": -2.4841087225149874,
      "180": -4.465620223728791,
      "181": 6.252636751758313,
      "182": 3.817940198992938,
      "183": -0.5842554032113307,
      "184": 2.3856330499892335,
      "185": 3.7075158841560856,
      "186": -2.819405382260246,
      "187": -3.0433362079816746,
      "188": -5.802861368486824,
      "189": 2.6010856263052453,
      "190": -4.137726818133731,
      "191": 1.3033516760155686,
      "192": -0.2284799941951055,
      "193": 2.2946344233965466,
      "194": -1.9604440082159336,
      "195": -0.651341916428006,
      "196": 4.03137480319005,
      "197": 1.920122322715802,
      "198": -1.7762586661825754,
      "199": 5.060984255975862,
      "200": 1.2667164250693117,
      "201": -0.9670058059380902,
      "202": 0.20372589972262642,
      "203": 1.9912673042372846,
      "204": 1.5813463696202672,
      "205": 0.9703238956550003,
      "206": -4.406157262188833,
      "207": 2.6239545466886787,
      "208": 2.6670192437287135,
      "209": -1.2781274552286985,
      "210": -0.29766726044946334,
      "211": -1.314670149427822,
      "212": 3.160143633410789,
      "213": 1.9786373471635006,
      "214": -0.7574250770249827,
      "215": -0.9097832171013894,
      "216": 1.5314991504821942,
      "217": -1.264441184357343,
      "218": -3.7323406446424303,
      "219": 0.24911070619842218,
      "220": -1.2662525943747258,
      "221": -1.0251964759151844,
      "222": -2.3302275360172366,
      "223": 1.6842759857846943,
      "224": 1.8131116732164863,
      "225": 2.15528394905105,
      "226": -0.7461092651849132,
      "227": -0.2414534893532187,
      "228": 0.036919692334050895,
      "229": 0.31483124617289854,
      "230": 1.9236236567526432,
      "231": -3.4259757852255124,
      "232": 2.304743671294588,
      "233": -0.9769388636584275,
      "234": -1.0973895627988763,
      "235": -0.07291844858268107,
      "236": 3.744269128215153,
      "237": -0.16904421835807015,
      "238": 4.612924280893449,
      "239": -0.3779818403029577,
      "240": -3.3406977010463073,
      "241": 0.1746246090281872,
      "242": 1.7744898292518048,
      "243": 1.6936629023344654,
      "244": 0.5990985128111144,
      "245": -0.715187107564822,
      "246": -1.947591066832041,
      "247": -1.8511330797031091,
      "248": 0.592021914975241,
      "249": -0.8968363322082391,
      "250": -1.6689399209069338,
      "251": -2.490795195192103,
      "252": 1.7378222437688886,
      "253": 0.6171490287349023,
      "254": -1.7904951328948244,
      "255": -1.5128552579416779,
      "256": -0.92373719483139,
      "257": 2.167490423652155,
      "258": -1.1744943661979628,
      "259": -0.2441105522052493,
      "260": 2.0514622268551275,
      "261": -3.077593889258465,
      "262": -0.2997770437082097,
      "263": 1.599814984885913,
      "264": 1.3219052121126282,
      "265": -0.08049658869860706,
      "266": -1.0365162590504078,
      "267": -0.40482204175227005,
      "268": -2.144949428018606,
      "269": 0.11166867686237411,
      "270": -4.241914078255444,
      "271": 1.3118981792642432,
      "272": -5.146689514428307,
      "273": 1.2454434912613153,
      "274": -1.7726789001796261,
      "275": 3.0602980352518903,
      "276": 1.359263945999335,
      "277": 0.7870047005148957,
      "278": 6.406966423104613,
      "279": 2.041946999378196,
      "280": 5.205181927384832,
      "281": -1.2352243923704709,
      "282": 1.1329070919010638,
      "283": -1.6039638257216844,
      "284": -1.8865787366755242,
      "285": 3.87002142787058,
      "286": -1.1641841986417307,
      "287": 0.3227429871209332,
      "288": -4.117653290274389,
      "289": -0.45891739045589264,
      "290": -1.7335170321917908,
      "291": 0.9276974845681766,
      "292": -2.0418157096862397,
      "293": -0.6407566799920966,
      "294": -0.3340381529649423,
      "295": 0.1070939595724416,
      "296": 1.497772955048432,
      "297": 1.334385735264381,
      "298": -1.6967215237673632,
      "299": 0.9520453555107076,
      "300": 2.6931129355093235,
      "301": 3.195119799674556,
      "302": 1.605535552551342,
      "303": -2.964669813607751,
      "304": 1.227806422524454,
      "305": 4.824705097085861,
      "306": 0.48215406292860025,
      "307": -0.7841607132611071,
      "308": 1.0595033108119853,
      "309": 3.1458514970973877,
      "310": -2.6709829065234665,
      "311": 1.7942419895760209,
      "312": 0.29741817908839874,
      "313": 1.4158056468449203,
      "314": -1.3377107284035112,
      "315": -0.9424534209894466,
      "316": -3.261864562436714,
      "317": 0.27391995760289206,
      "318": 3.2817918515286597,
      "319": 1.1060176151540602,
      "320": -3.459330023503391,
      "321": -0.4531254974361771,
      "322": -4.261028129444689,
      "323": -2.0682135011805607,
      "324": -0.6553478109982197,
      "325": -1.1222503859033741,
      "326": -4.233878414194693,
      "327": -0.7105002368585707,
      "328": -0.12109276907562287,
      "329": 4.852835136033895,
      "330": 0.22592895992424497,
      "331": -4.562906829844415,
      "332": 4.118639945149147,
      "333": -1.7708953889221755,
      "334": -3.3561823480749076,
      "335": 1.338459273403954,
      "336": 0.568761236951387,
      "337": 0.08587433313228923,
      "338": 0.4470912819131027,
      "339": 1.1208205045004498,
      "340": -2.1159360123028037,
      "341": 0.7054893570788966,
      "342": 7.095542294200367,
      "343": 3.939080418978687,
      "344": -2.236683502161376,
      "345": -3.17499916752164,
      "346": 1.7418569023499295,
      "347": -0.702293077405328,
      "348": 2.853997011744795,
      "349": 0.3472997868622996,
      "350": 2.2432051238431825,
      "351": -2.8703852921151345,
      "352": -1.3846246192241713,
      "353": -0.9141880793879371,
      "354": -2.4054596006441815,
      "355": -1.3831693650105177,
      "356": -1.4514108117759137,
      "357": -0.45376028114829253,
      "358": -0.5057075446846354,
      "359": 1.9005817791725725,
      "360": 4.956522876785044,
      "361": 0.33254030570234255,
      "362": 3.8165418216503206,
      "363": 2.9319310121629365,
      "364": -1.6091839894879438,
      "365": -3.128407533795958,
      "366": 0.6363684381027206,
      "367": 1.481119750090214,
      "368": -1.0820137034322768,
      "369": 3.2896518828894865,
      "370": -0.8639347525689375,
      "371": 0.12725565943070857,
      "372": 0.6917290059119248,
      "373": -6.385485694237711,
      "374": -2.096742672381912,
      "375": -2.0268071099466023,
      "376": 0.00435146625572474,
      "377": 1.948909378574966,
      "378": -2.61991783686771,
      "379": -1.8522945061392446,
      "380": 1.9548991172363825,
      "381": 0.570981014369979,
      "382": 4.888370279943452,
      "383": 3.193465520506195,
      "384": -4.7960511562005745,
      "385": 1.0342043965054637,
      "386": -3.926063693468066,
      "387": 0.7280548302954787,
      "388": 0.11570449021628505,
      "389": -2.3799423962213555,
      "390": 1.2696992676027656,
      "391": -0.4537767970662491,
      "392": 2.762413851517161,
      "393": -2.1845040765016823,
      "394": -0.8720118828463899,
      "395": -4.922340689649532,
      "396": -2.373129132568305,
      "397": -0.9284814332085246,
      "398": 1.9399589548992793,
      "399": -3.7216114950307593,
      "400": 4.040633713760923,
      "401": 2.8850260199671234,
      "402": -1.6276966179497465,
      "403": -3.7951244711197383,
      "404": -0.07420294445533089,
      "405": -1.1332175503833282,
      "406": 0.07672257460460324,
      "407": 1.5729914609892,
      "408": -0.28601829690678826,
      "409": -2.128684316732367,
      "410": -2.202436000124725,
      "411": 0.3901118211577267,
      "412": 0.6292752206334628,
      "413": 3.165227618074041,
      "414": -2.0816546815563552,
      "415": -0.5613515296781081,
      "416": 3.5952204395335903,
      "417": 1.2707430509467625,
      "418": -0.022193372000048523,
      "419": 4.222357349215965,
      "420": 0.7032834291453761,
      "421": -1.2854579211012744,
      "422": -0.43145087098324814,
      "423": -1.283137023878788,
      "424": -6.879613478957158,
      "425": -2.853584953767655,
      "426": 0.5111610660689172,
      "427": -4.095077482276911,
      "428": -0.2895522808143523,
      "429": 3.8318734259494076,
      "430": 0.4575977356414568,
      "431": 0.1614728590728848,
      "432": 4.785393824753991,
      "433": -0.6701453292794384,
      "434": -1.970615536933104,
      "435": -2.014174549828576,
      "436": 3.164597667629231,
      "437": -0.5842126808210881,
      "438": 0.32687483541849705,
      "439": 0.7296640747215865,
      "440": 0.8689016889690648,
      "441": -2.8281319336404045,
      "442": -4.46610908733033,
      "443": -0.28241932807367787,
      "444": -2.681410165647618,
      "445": 0.39220882082529435,
      "446": -1.4097414769504313,
      "447": 2.936031097141805,
      "448": 6.320362825867939,
      "449": -1.660386314163003,
      "450": -0.6570054853613234,
      "451": -2.3973667202469464,
      "452": -2.9660186427687867,
      "453": 2.064594709370182,
      "454": -4.254273953068371,
      "455": -2.402710174971668,
      "456": 0.3812481637262135,
      "457": 2.1356773578166415,
      "458": -4.800594085463954,
      "459": 0.35666666138091097,
      "460": 0.8876413146488884,
      "461": -0.8854908345794388,
      "462": -0.7529042277041349,
      "463": -1.4700770842298547,
      "464": -3.1688087642910374,
      "465": -3.1594050611266615,
      "466": -5.520237906816901,
      "467": -1.859721080000327,
      "468": -1.9102091195393784,
      "469": -0.2671732278614875,
      "470": 0.43716376490936193,
      "471": 1.5795210569133293,
      "472": 2.503580990550119,
      "473": 2.655127305464236,
      "474": -3.7144483699738013,
      "475": -3.2107087093597757,
      "476": 1.540945143662047,
      "477": -1.5466621418723239,
      "478": -1.330294001430996,
      "479": -1.432707005907188,
      "480": -1.2349844734456321,
      "481": -3.808724468875478,
      "482": -1.4096083491580444,
      "483": -1.3370940038701935,
      "484": -5.598399811095945,
      "485": -7.055045779088313,
      "486": -0.2953998351251753,
      "487": 4.8979201564059105,
      "488": -2.9353246324488023,
      "489": -2.0343012345655986,
      "490": -2.649706275204571,
      "491": -0.9205492988969359,
      "492": -1.000787053814213,
      "493": 1.4371501688494297,
      "494": -1.2833857688361996,
      "495": -4.514431841710293,
      "496": -1.3911700045645514,
      "497": 4.075683599029598,
      "498": -0.5333084231057604,
      "499": 3.3035564903855184,
      "500": -2.99197779027524,
      "501": -2.106316668475055,
      "502": -4.487602268449011,
      "503": -2.0332467623703785,
      "504": -0.3801511678011371,
      "505": -2.6464301272173647,
      "506": 4.893028556687591,
      "507": 3.7803292598901703,
      "508": -1.1435167100915642,
      "509": -1.6860317299192702,
      "510": -6.923532484041036,
      "511": 5.3508809289731225,
      "512": 2.3252940133745343,
      "513": -4.022733887514946,
      "514": -3.0974312483754924,
      "515": -2.159075633688326,
      "516": -4.718754977701791,
      "517": -8.6059424447635,
      "518": 2.686646470708916,
      "519": 2.0642501449181307,
      "520": 4.1947606733647325,
      "521": -0.3206204787727407,
      "522": -0.25435522475618805,
      "523": -0.852920893637843,
      "524": 0.3631199909195826,
      "525": -4.591261834909932,
      "526": 0.31999831537860685,
      "527": 9.88132422541109,
      "528": -4.136343298152129,
      "529": -6.288001410132884,
      "530": 3.4740038118042227,
      "531": -2.095960944712987,
      "532": 2.475805777625562,
      "533": -2.0910172447270345,
      "534": -6.779881322496051,
      "535": 2.3252511013226282,
      "536": 2.7557950717778428,
      "537": 4.4679872057386065,
      "538": 6.455359194024496,
      "539": -0.2103138943260858,
      "540": -3.156170607040425,
      "541": -4.954075967450722,
      "542": -4.829188116399003,
      "543": 3.731704161950321,
      "544": 1.337044379979779,
      "545": -3.577489040160608,
      "546": 3.1871586074373015,
      "547": 1.0349728646687126,
      "548": -2.942367739880712,
      "549": 3.213611467465361,
      "550": 5.6186386726936774,
      "551": 3.5073703836424057,
      "552": 2.1978823179646456,
      "553": -3.8276890866955586,
      "554": -3.6799705215544187,
      "555": -0.5376386607587844,
      "556": -0.7405731990647628,
      "557": -0.3946032106504964,
      "558": 9.386243220316056,
      "559": -1.9416076004252443,
      "560": -0.7233514471171665,
      "561": 2.69278943173457,
      "562": -7.61509990384533,
      "563": -3.8442075718011623,
      "564": -1.8121846113066604,
      "565": -1.1078871508360955,
      "566": -1.712196319652482,
      "567": 1.4568400168411721,
      "568": -0.6407804077377859,
      "569": 0.6771771395819611,
      "570": 6.948229385355045,
      "571": -3.354387469286767,
      "572": 4.936096904950529,
      "573": 0.5741461717697037,
      "574": -0.4217602372498517,
      "575": -1.359865093863413,
      "576": 4.677183375278046,
      "577": -3.0250544045906347,
      "578": 3.5022818057024785,
      "579": -1.7607606652498642,
      "580": 2.4118507259245763,
      "581": 2.4050369554120845,
      "582": -2.764230388565548,
      "583": -3.3739786569825476,
      "584": 1.1297457121061545,
      "585": -2.963097996067118,
      "586": -3.2324682414337795,
      "587": -1.2673561503975788,
      "588": 0.028924403169395832,
      "589": 5.835377185743787,
      "590": -2.7123853026205325,
      "591": 0.6848729149120811,
      "592": 4.224380090753933,
      "593": 1.69256836783344,
      "594": -0.7140916815268843,
      "595": -0.38083146026566805,
      "596": -3.947339030179813,
      "597": -3.7520712286067734,
      "598": 1.3273771689406193,
      "599": 0.36000559794242615,
      "600": -0.1869895869121382,
      "601": 1.725966355649545,
      "602": -4.009435189822062,
      "603": 2.16935470364221,
      "604": 3.2982906063197697,
      "605": 6.723183358648195,
      "606": 2.877802563355191,
      "607": 0.06061327999128905,
      "608": -0.8023868582759639,
      "609": -1.1810340817575586,
      "610": -5.123192311308774,
      "611": 4.069144643518203,
      "612": -0.7774416352872426,
      "613": -0.8934672130011236,
      "614": 2.1317117318444927,
      "615": 2.390846714280488,
      "616": -3.9014678262273983,
      "617": -4.483670183686613,
      "618": -3.000642984628447,
      "619": 2.0336497897921024,
      "620": -1.2734931273749182,
      "621": 0.32043924468739976,
      "622": -5.7943993900112964,
      "623": -3.6804769288306116,
      "624": -0.5230604789665592,
      "625": 2.7467361664335357,
      "626": 0.03660856705113166,
      "627": 0.9413093981925105,
      "628": -1.0692016384600074,
      "629": 1.6628776496935043
    }
  },
  "Wix0": {
    "n": 30,
    "d": 10,
    "w": {
      "0": 2.4402910186514424,
      "1": 1.8799379034784962,
      "2": 0.8381155021685853,
      "3": 5.483952829026171,
      "4": 3.887217334073709,
      "5": -0.8121709464684782,
      "6": 2.0265963960345785,
      "7": 1.0837675342693316,
      "8": 6.800879326316117,
      "9": -4.029085513299666,
      "10": -0.8928603681252203,
      "11": -2.551901324463121,
      "12": -4.73965852356691,
      "13": -0.7511402774847259,
      "14": 2.6080046122058804,
      "15": 9.497391575901341,
      "16": -0.5354390703653451,
      "17": 1.8805451783597391,
      "18": -3.323729458119236,
      "19": 1.9872778150809696,
      "20": -0.5872892845191562,
      "21": -1.1829114180719058,
      "22": -3.411495371886433,
      "23": 2.0350550540336507,
      "24": -6.631224785623008,
      "25": -0.1799357593075174,
      "26": 0.13226859591292692,
      "27": -4.499846763915764,
      "28": 0.634654300543645,
      "29": -0.6407725902908921,
      "30": 3.461005561467601,
      "31": -7.209045610084296,
      "32": 4.451955135413554,
      "33": 0.8406695909434849,
      "34": -8.021047443357332,
      "35": -2.8537152696465733,
      "36": 1.9504375924916746,
      "37": 1.4255835584558996,
      "38": -2.3506097269989645,
      "39": -0.9904909463427523,
      "40": -1.4802168276261458,
      "41": 6.379193814735517,
      "42": -0.9997502475717934,
      "43": -2.518675023209678,
      "44": 4.6510652249877396,
      "45": 2.8827567993087455,
      "46": -1.4663487989085193,
      "47": -5.707455254760977,
      "48": -0.982701237110146,
      "49": 0.5664827795361504,
      "50": -2.2570055068729724,
      "51": -5.333903626585557,
      "52": -1.329915443766827,
      "53": 5.775863877429516,
      "54": 1.35545380091122,
      "55": -3.542057553920172,
      "56": 2.545452765765631,
      "57": 1.0693413076479885,
      "58": 2.9925995395073137,
      "59": -1.0752340679066523,
      "60": 1.286409868793341,
      "61": -3.624611541795557,
      "62": 0.47535599658291366,
      "63": -3.121843333374355,
      "64": 5.350200022652784,
      "65": -2.6686701042760816,
      "66": -0.10369725099830737,
      "67": 5.719686131221025,
      "68": 0.723232538545696,
      "69": -9.136770750571634,
      "70": -5.466844395200717,
      "71": 5.9068303367663635,
      "72": 2.1416330637629164,
      "73": 0.45987078070819337,
      "74": 1.6538299150928457,
      "75": 2.2391587441730016,
      "76": -2.997085086495139,
      "77": -0.8741342162217911,
      "78": 0.9372140006560282,
      "79": 2.0660778114830927,
      "80": 4.4898920838130145,
      "81": -3.2070444371016955,
      "82": -1.3128882239624817,
      "83": 0.10215077150408983,
      "84": -1.1245486618698346,
      "85": -1.5144865921231405,
      "86": 2.245322206416554,
      "87": 0.1930588394519057,
      "88": -2.565450040383465,
      "89": -1.8160369371857992,
      "90": 3.717340546421992,
      "91": -2.0268295399236287,
      "92": 1.3567750989859644,
      "93": 2.9861453757887997,
      "94": 2.5554251052875494,
      "95": 1.6371495705981578,
      "96": 4.496490015324305,
      "97": -1.2666666685674293,
      "98": -2.4519566883743376,
      "99": -3.9743189902699942,
      "100": -2.4852327783126036,
      "101": 3.742540587630168,
      "102": -1.0906367559872858,
      "103": 3.1958270969807514,
      "104": 0.9401437765086261,
      "105": 0.6797206231126678,
      "106": -5.759067189512576,
      "107": -1.2577279066893112,
      "108": -0.6262608775525252,
      "109": 5.110837497298432,
      "110": 4.518159520964561,
      "111": -1.697923183908881,
      "112": 3.65126597198734,
      "113": -3.1348884066017804,
      "114": -3.4120667525769455,
      "115": -0.8964630204666094,
      "116": 4.724068491702155,
      "117": 0.012698221848590771,
      "118": 3.428742607840326,
      "119": -0.5091395452590558,
      "120": 0.3488236240344385,
      "121": 1.032280601473172,
      "122": -0.6388435297534031,
      "123": -0.5908425461368164,
      "124": -0.6017646391844758,
      "125": -2.7595320459376356,
      "126": 0.2627901627263525,
      "127": 0.7574395126530062,
      "128": 0.987752312013114,
      "129": 1.7139187647862013,
      "130": 1.067590791218635,
      "131": -0.2293327173813135,
      "132": -1.1170826937811338,
      "133": 0.3585744911593314,
      "134": -0.252183167731673,
      "135": -0.4695270871319756,
      "136": -0.10947065716727972,
      "137": -0.4447827777042175,
      "138": -0.8733961403537192,
      "139": 0.5183600846582792,
      "140": -2.9528385935371673,
      "141": -6.9243314098349575,
      "142": -3.919105512303075,
      "143": -0.3306358818760967,
      "144": -2.454760267489269,
      "145": 6.537040345181595,
      "146": 5.931979542120285,
      "147": 1.9879698553176008,
      "148": -3.9369644451258834,
      "149": -2.4341204070625775,
      "150": 0.08739554870157061,
      "151": -3.9584391224358004,
      "152": 5.831862926173047,
      "153": 1.951105446775543,
      "154": -0.526764975860906,
      "155": -0.5307911453858618,
      "156": -0.06147613152419774,
      "157": -4.844195814274723,
      "158": -1.0414622627264223,
      "159": 0.20198705594402602,
      "160": 1.3063255690311295,
      "161": -0.9722336988047673,
      "162": 1.5232062740989036,
      "163": -5.722683404713514,
      "164": -3.2522881076925363,
      "165": -3.53724280681271,
      "166": -6.14883675872038,
      "167": 2.2193880857337347,
      "168": -3.2158288364669336,
      "169": 1.3369335916774052,
      "170": 2.0634774405159746,
      "171": 1.8566193380488616,
      "172": 2.775072966827098,
      "173": -0.7622461142545709,
      "174": -2.311892812856457,
      "175": 0.9393001455734942,
      "176": -2.146161087443488,
      "177": -0.8989990820422848,
      "178": 0.14132155450248207,
      "179": 5.132859515734652,
      "180": -0.5392741924848675,
      "181": 1.16036504598054,
      "182": -1.8059403226024031,
      "183": -4.458421997534425,
      "184": -1.2578047129912755,
      "185": 3.1117831302258234,
      "186": 7.002191858803453,
      "187": 1.7009471594506615,
      "188": 3.0676806964103154,
      "189": -0.47745821328204274,
      "190": -3.478379538979253,
      "191": 3.8583947877990363,
      "192": -0.11588937595673714,
      "193": -0.6597682683618235,
      "194": -0.05703781228133876,
      "195": 3.5006908800021446,
      "196": -2.8221294953511493,
      "197": 2.3197950049480487,
      "198": 3.0144284686750704,
      "199": -2.1633253073067866,
      "200": -3.107360406983118,
      "201": -2.0233283659193377,
      "202": -2.076713713962449,
      "203": -1.0370023307254106,
      "204": 3.670099981646762,
      "205": -0.26694655187551747,
      "206": -2.1800122534770803,
      "207": 1.523716096059101,
      "208": -0.9109496860359004,
      "209": 0.886349763730474,
      "210": -0.35782917003326864,
      "211": 2.3208263050564293,
      "212": 0.5557967670020663,
      "213": -4.209511245025868,
      "214": -2.4501599690891314,
      "215": -0.9433914242656233,
      "216": 0.12343081288202506,
      "217": 0.012508013392534696,
      "218": 1.6344061410392958,
      "219": 3.2213489609510444,
      "220": 6.467017521183899,
      "221": -4.9579260099727165,
      "222": -1.1641488866003116,
      "223": 1.8587228492197525,
      "224": -0.16480290856202345,
      "225": 3.205717749019614,
      "226": 5.645587592506307,
      "227": -2.3214886412528455,
      "228": 2.836432831429284,
      "229": -3.9221155289581913,
      "230": 2.195944041562422,
      "231": -0.12624200880091851,
      "232": -1.9805912360632405,
      "233": 6.214167832510451,
      "234": -2.8699693000312423,
      "235": 5.742085132826606,
      "236": -0.1681994536675981,
      "237": 0.978267806397596,
      "238": -3.53678130064478,
      "239": -2.2909058059773373,
      "240": 0.1334588658356332,
      "241": 2.446987517198636,
      "242": -1.1941242278402744,
      "243": -1.1499791802115473,
      "244": -4.947185108985309,
      "245": -3.828509634938893,
      "246": -1.2087944778909394,
      "247": 1.4395373037163082,
      "248": 2.68348310225629,
      "249": 2.7612074313090784,
      "250": 2.5976832345743572,
      "251": -4.614127255325517,
      "252": -0.4225102785830652,
      "253": -5.958415887944283,
      "254": -2.4961632740349193,
      "255": -3.100139156000577,
      "256": 2.873892831657979,
      "257": 1.5552230851876683,
      "258": 2.3845263515686286,
      "259": 0.6753050828313286,
      "260": -1.3646722110528815,
      "261": -2.5399819418581147,
      "262": 3.767745053623102,
      "263": -1.124563978198997,
      "264": 0.7123762098447991,
      "265": 0.2805911433582534,
      "266": 1.6316777730806276,
      "267": -0.33342570854881015,
      "268": 2.447077622950798,
      "269": -4.005652843270012,
      "270": 2.3172816857685405,
      "271": -7.150424376636797,
      "272": 3.4507529879570016,
      "273": -0.395299383734618,
      "274": -2.457589600142377,
      "275": -2.631783665004272,
      "276": 2.9304615903697147,
      "277": 4.515503765769794,
      "278": -0.15256584705911527,
      "279": -0.49399589419913137,
      "280": -2.9667245930146375,
      "281": 1.3293805288857778,
      "282": -2.0876468856991757,
      "283": -0.5830896255301575,
      "284": 1.8971360131642419,
      "285": 1.9011244948998554,
      "286": -6.921700515227884,
      "287": -3.7450388304133027,
      "288": 3.1714031561002605,
      "289": -2.6371519052169408,
      "290": -0.9777209065442654,
      "291": -3.997654795934109,
      "292": -5.8717881207962925,
      "293": 1.072373086714134,
      "294": -1.717242972939186,
      "295": -1.5628438219615557,
      "296": -2.756836915921157,
      "297": 3.170879884282603,
      "298": -5.899789983085099,
      "299": -2.3062519658311755
    }
  },
  "Wih0": {
    "n": 30,
    "d": 30,
    "w": {
      "0": -1.8832643273778984,
      "1": 0.47108515319727706,
      "2": 4.536140995637641,
      "3": 3.018400958114088,
      "4": 1.3435800452088928,
      "5": 5.0388571443953625,
      "6": -1.1819827278823232,
      "7": 11.171972740426696,
      "8": 0.24004956057112176,
      "9": 4.808034005140879,
      "10": -3.68723399617569,
      "11": 5.343736181138111,
      "12": -0.1707831973061648,
      "13": -4.321286188882785,
      "14": 1.9448376144483266,
      "15": 0.4408394392949974,
      "16": 3.682920183841177,
      "17": -2.190690847532592,
      "18": -2.6774664250555698,
      "19": -1.23758732755541,
      "20": 2.79582869534213,
      "21": 4.473494870712277,
      "22": -5.659464430589995,
      "23": -6.586857314568836,
      "24": -0.549248908496849,
      "25": 3.53701181944436,
      "26": 0.0372890791396504,
      "27": -1.548646325132061,
      "28": 11.94455642054375,
      "29": -4.982176308562753,
      "30": -1.2336515892961624,
      "31": -1.7418227530910695,
      "32": -0.37120629664446175,
      "33": 2.125564204415012,
      "34": -0.656994999440249,
      "35": 5.479849666524871,
      "36": -2.6270998735368165,
      "37": 1.9304870317158742,
      "38": 1.4930910060906666,
      "39": -2.607357073630898,
      "40": -4.2016023041676185,
      "41": -2.323659946674261,
      "42": 13.097115866621385,
      "43": -1.804159847402698,
      "44": 1.2660372352758826,
      "45": -2.7154583002835,
      "46": 6.206031349075285,
      "47": 3.4903940498926813,
      "48": 1.8340671142293863,
      "49": 1.829610139183558,
      "50": 1.396092547750479,
      "51": -1.032326159558803,
      "52": -0.00617427510832603,
      "53": -3.327106383025916,
      "54": 5.841730162223276,
      "55": 0.014535554053985114,
      "56": -2.3767205539318614,
      "57": 1.4402052157581484,
      "58": -1.156813776515011,
      "59": -3.3099369434967882,
      "60": -0.6303614999277227,
      "61": 4.501934309742284,
      "62": 3.3906206952918625,
      "63": -0.4679449827121144,
      "64": -8.840642055951333,
      "65": -1.929448193729358,
      "66": -2.7221265350569697,
      "67": -2.090999556318678,
      "68": -1.3684675146836147,
      "69": -5.908171483386728,
      "70": -3.738081650513709,
      "71": -9.571295134167194,
      "72": -1.1692500292547028,
      "73": 0.7647351284528303,
      "74": 3.621657894953003,
      "75": -2.8868360552411554,
      "76": 4.760836414583111,
      "77": 2.4491022295955345,
      "78": -0.3026423909699086,
      "79": 8.151005333313568,
      "80": 13.045106398819888,
      "81": 1.5801400351506991,
      "82": -0.5657003958465745,
      "83": 2.2918633778790816,
      "84": 1.0795376932926075,
      "85": -0.48338813410513315,
      "86": 0.1896422916316,
      "87": 4.553620720471121,
      "88": 8.328782224138711,
      "89": -1.7149326566879062,
      "90": 2.2219047887737053,
      "91": 2.508681223256261,
      "92": 3.9317143686953995,
      "93": 1.9106299775484124,
      "94": -0.5866954667292947,
      "95": 0.8525688648266949,
      "96": -1.3673700095396444,
      "97": 3.7919844525884385,
      "98": 2.1333784104693567,
      "99": -8.010740095591665,
      "100": 11.050841239958832,
      "101": -1.0262088495777535,
      "102": 0.710619553329666,
      "103": 5.648122310775145,
      "104": -2.585960683501947,
      "105": 0.7845133123598751,
      "106": -4.1364476531410705,
      "107": 6.437146326379281,
      "108": -1.5206767728920432,
      "109": 2.3694945420786127,
      "110": -0.3592342651815996,
      "111": 1.8830897454664495,
      "112": -4.2881931662063515,
      "113": 2.492267499854947,
      "114": 3.1375030123654533,
      "115": -2.165636803130771,
      "116": -3.152850468665152,
      "117": 0.5276048712872542,
      "118": 2.5371295987163034,
      "119": 1.880037578267684,
      "120": -1.098945325231784,
      "121": 2.5166542755492,
      "122": -1.6085970380182153,
      "123": -0.002895743146012612,
      "124": -6.169000685504131,
      "125": 2.162285095300882,
      "126": 2.048216289844484,
      "127": 2.934688760007302,
      "128": -0.5058580789320073,
      "129": 1.970223624156224,
      "130": -3.183832197735608,
      "131": 3.0757559223832347,
      "132": -5.49372442540029,
      "133": 3.174234175227592,
      "134": -3.2559779948158587,
      "135": -2.7269586720306354,
      "136": -2.1915047308933584,
      "137": -8.845833235477215,
      "138": 0.5694322614405719,
      "139": 0.30704684234910146,
      "140": 0.2569446902177486,
      "141": -5.751501608457994,
      "142": 5.681530111851782,
      "143": 4.369120989705786,
      "144": -7.697253534519796,
      "145": 1.3946027877267797,
      "146": 7.133365145436176,
      "147": 2.39882311708812,
      "148": -2.042631653005681,
      "149": 6.0081107331701595,
      "150": -0.46967860151923707,
      "151": 6.1544093102225395,
      "152": -1.0485890512382818,
      "153": -7.452213255752494,
      "154": -2.9825144254051685,
      "155": 0.8035315199886451,
      "156": -2.87111761326524,
      "157": 5.497442457367496,
      "158": 9.195077938358319,
      "159": -8.377359088346626,
      "160": 2.5896204345377885,
      "161": 5.595454380677065,
      "162": 1.1303613929470981,
      "163": 7.138590211631606,
      "164": -0.6607280390525601,
      "165": -1.389969630093056,
      "166": 5.532920477873883,
      "167": 0.15999337543511943,
      "168": -1.5359624132726126,
      "169": 2.7963818937879594,
      "170": 4.010342491178823,
      "171": 10.315261254596804,
      "172": -1.4298063258394296,
      "173": -5.082192906488025,
      "174": 2.4629127402263116,
      "175": -0.8791719424101143,
      "176": -1.1203736153537887,
      "177": -0.04916798998168123,
      "178": 7.316523534744866,
      "179": 1.5426479132079685,
      "180": -0.837980312527222,
      "181": -0.18532790193761312,
      "182": -3.3415657611515988,
      "183": 0.4529688223161651,
      "184": -0.3161857212406462,
      "185": -3.595544215793822,
      "186": -4.61058190433117,
      "187": -3.9083299646211627,
      "188": 2.4460593643529807,
      "189": -2.001081481476163,
      "190": -4.242064882824777,
      "191": -9.186968230753326,
      "192": 0.7171704359249181,
      "193": -2.2581659294829803,
      "194": -8.206190007520593,
      "195": -3.8313330539511212,
      "196": 4.779205303731359,
      "197": -9.582860443068107,
      "198": -5.648931916641227,
      "199": -2.348062764459959,
      "200": 2.048999517476981,
      "201": 0.015123190648907475,
      "202": 0.8524709530754235,
      "203": -0.11816993892734645,
      "204": 8.978871240036055,
      "205": -3.4859123098887435,
      "206": 1.9075100770593236,
      "207": -1.2163546317840639,
      "208": -0.5495133773505957,
      "209": 3.5675101639001237,
      "210": -0.8172555426427155,
      "211": 0.17129070399756086,
      "212": 1.5915227350411052,
      "213": -6.517642427242542,
      "214": 11.491669530448695,
      "215": -0.9572816364419058,
      "216": 1.6474648491399728,
      "217": -1.0639990941453834,
      "218": 3.355901458171917,
      "219": 9.543199445934748,
      "220": -1.1540192104076767,
      "221": -2.2301806127922394,
      "222": -5.818243857074297,
      "223": 0.467539122661089,
      "224": 3.0831239065879776,
      "225": -1.3683729542543541,
      "226": -2.9778321108384356,
      "227": -2.0157095165957695,
      "228": 9.034975356235604,
      "229": -11.14090711465705,
      "230": -0.7584230155697795,
      "231": 3.566076432172246,
      "232": 1.846937817885252,
      "233": -1.7005533459181734,
      "234": -0.4163153096876964,
      "235": 4.7701314043922824,
      "236": 2.1001841070447127,
      "237": -3.337584211640596,
      "238": -0.07929665147197384,
      "239": 2.2828090900715132,
      "240": -1.1575242656738982,
      "241": 2.1421315633949685,
      "242": -3.214467611031606,
      "243": -2.9945278594566145,
      "244": -0.2373328426708858,
      "245": 11.212825087382754,
      "246": 2.4651334879796836,
      "247": 2.5766590797653373,
      "248": -2.4260031546651013,
      "249": 7.440081800043438,
      "250": -1.5039373996613232,
      "251": -4.426893269711369,
      "252": -1.175743793202139,
      "253": 1.9293772011200472,
      "254": 5.110032853640267,
      "255": 1.1351916943305096,
      "256": 4.329379730733793,
      "257": -9.71223060843099,
      "258": -7.487090725596346,
      "259": 2.1285713582001846,
      "260": 1.62494590100328,
      "261": 6.378306245813465,
      "262": -1.9660295902253335,
      "263": -2.2969681980633783,
      "264": 4.722779544977428,
      "265": 3.662597659954041,
      "266": -11.145783098505927,
      "267": -2.8377263981933236,
      "268": 4.0264570472688455,
      "269": 0.4874355538157758,
      "270": 5.162673566783414,
      "271": 2.991457576061163,
      "272": 1.6241957966697766,
      "273": 1.5608055465860873,
      "274": 2.0846454831764554,
      "275": 2.1832800957638336,
      "276": -1.8661779842012032,
      "277": 3.650265296888558,
      "278": -2.8993033611185455,
      "279": -5.932970704860268,
      "280": -4.450602377260399,
      "281": -9.518059332368711,
      "282": 0.8280230692201435,
      "283": 0.24890021465418458,
      "284": -0.06819815096255072,
      "285": -7.447667502778249,
      "286": 11.20806496355236,
      "287": 1.8904794433869812,
      "288": 0.0839716823793731,
      "289": 4.888372314112556,
      "290": 4.268674917348048,
      "291": 5.601611686856601,
      "292": 4.802155659204383,
      "293": -3.053935261791244,
      "294": 5.160850094039624,
      "295": 5.854582729674355,
      "296": -1.66134165809326,
      "297": 1.8890261661982655,
      "298": 2.6153017333648,
      "299": -2.6158993542558013,
      "300": 2.9027037091632266,
      "301": 6.402027348354833,
      "302": -0.23195234767308864,
      "303": -0.05973356307621885,
      "304": 6.69902148418657,
      "305": 3.906178896580178,
      "306": -1.596843541047242,
      "307": -2.70071334117809,
      "308": -0.6830939775271062,
      "309": -7.7481445248758165,
      "310": -0.39181736921764626,
      "311": -0.9656095321964803,
      "312": -1.0725609585148648,
      "313": 2.0860425912057265,
      "314": -11.162511357476626,
      "315": -6.983017623969867,
      "316": -1.9825886517528986,
      "317": -8.524611911045486,
      "318": -3.9031920799272903,
      "319": 1.968780726466252,
      "320": 2.4551094494047385,
      "321": 1.3404391336395753,
      "322": 0.942112151170694,
      "323": 3.5347891134710085,
      "324": -1.8295645027873886,
      "325": -4.11540079315117,
      "326": 3.59404658183316,
      "327": 2.9529544628751614,
      "328": -0.6113294840250669,
      "329": 4.971106912712222,
      "330": -5.238641688275157,
      "331": -0.8912240703914184,
      "332": 3.864982859287809,
      "333": 7.491913509766652,
      "334": 4.06339045116642,
      "335": -0.5589426732396561,
      "336": 1.9452713446653884,
      "337": 3.18487001030141,
      "338": 1.0459326836639027,
      "339": -2.0676074628085064,
      "340": -8.696625467236755,
      "341": 4.577164095650767,
      "342": -1.6202172772841676,
      "343": 10.248917785526034,
      "344": -2.0006445599426317,
      "345": 1.3985564856879757,
      "346": 7.102290270237603,
      "347": 8.321330186379038,
      "348": 0.3587455666946414,
      "349": 5.357252830834165,
      "350": 1.2197192277584876,
      "351": -3.1778483848649395,
      "352": 3.4779713807178885,
      "353": -4.837730527433827,
      "354": 4.057724431131509,
      "355": 7.107132753808906,
      "356": 6.5592710915006665,
      "357": 2.085862423822417,
      "358": -1.1354343141119005,
      "359": -2.8649729173433154,
      "360": -3.32930524036728,
      "361": -6.417058335049307,
      "362": 6.0065099623892095,
      "363": 1.7718500401068686,
      "364": 4.457628064091625,
      "365": -1.7051694465841276,
      "366": 1.8589854644303878,
      "367": -6.841893610722451,
      "368": -6.522617289895677,
      "369": 2.768803899454565,
      "370": -3.967067382652998,
      "371": -8.132195673320279,
      "372": 3.503411481086243,
      "373": 5.061816268637237,
      "374": -1.9648222196298026,
      "375": 1.8317443392863133,
      "376": 0.4180966641499942,
      "377": 1.1700632711994274,
      "378": -0.06069667750516525,
      "379": -0.9164230389137769,
      "380": 0.30356032370537467,
      "381": 0.0010989741173441396,
      "382": 3.4335123976240487,
      "383": 3.6356325034552657,
      "384": 1.5366750281384038,
      "385": 2.6061710407315317,
      "386": 7.303836133688692,
      "387": 1.1763061654026057,
      "388": -2.193406486144007,
      "389": -8.09054305399217,
      "390": 4.375681205283853,
      "391": 2.005444428392583,
      "392": 4.792654115775025,
      "393": -4.266349629993123,
      "394": -0.49577967059041766,
      "395": 4.5776131784595915,
      "396": -4.619027824252638,
      "397": 0.3891469710632665,
      "398": 2.7284800572510344,
      "399": -8.45078386014645,
      "400": 0.8369667261140465,
      "401": 3.1868040801692334,
      "402": 4.625479214157167,
      "403": 0.902147933476946,
      "404": -1.4757493736161496,
      "405": -0.6894429674824532,
      "406": 8.536615247669447,
      "407": 3.0992651643593105,
      "408": 1.1344857266031219,
      "409": 5.54191647392791,
      "410": 5.961033880724746,
      "411": 6.244940708127793,
      "412": 4.829606913163498,
      "413": -0.5520808197678204,
      "414": 1.6090082089698303,
      "415": -1.0992191745791433,
      "416": -3.8215796268195565,
      "417": 1.1032429601328215,
      "418": 2.053821658953937,
      "419": -4.006544501066218,
      "420": 1.0652043797549335,
      "421": -1.4029845545274464,
      "422": -3.0753420723838025,
      "423": -3.4875806400583595,
      "424": 0.6965615003317223,
      "425": -0.8386620628317129,
      "426": -2.277467966540717,
      "427": 3.0405030497516554,
      "428": 1.5500654662029294,
      "429": 4.73423690121168,
      "430": -4.098764770315284,
      "431": -3.179283239433304,
      "432": -10.569279792274372,
      "433": 3.047987819895073,
      "434": -4.716722619930854,
      "435": 3.149152687119703,
      "436": 6.657859424649196,
      "437": -3.722988298386747,
      "438": -2.3020441968262877,
      "439": -0.5108804360886559,
      "440": -1.6684091269370702,
      "441": 6.841586535030318,
      "442": -0.5394876438273661,
      "443": -2.7048247983349682,
      "444": 1.5121771706824811,
      "445": 5.101158044889025,
      "446": -2.4144128062162675,
      "447": -2.8020733876542625,
      "448": 0.41588305991442515,
      "449": 1.7417720642196728,
      "450": 3.3862538536668185,
      "451": 0.00840530860783337,
      "452": 3.560476101270709,
      "453": -4.956177996725346,
      "454": 6.160981465571456,
      "455": -1.007359371407523,
      "456": -3.552531472670962,
      "457": 7.077095829458897,
      "458": -2.763177753657564,
      "459": -0.32874767184560344,
      "460": -0.6215824974931087,
      "461": 2.4249506725949397,
      "462": -2.476598675665733,
      "463": 3.158393499435594,
      "464": 0.5968777709710548,
      "465": 4.251534699555621,
      "466": 8.353157994157316,
      "467": -4.9114603905673775,
      "468": 2.739576426224927,
      "469": 4.745227218844326,
      "470": -1.7729635878145407,
      "471": -2.3525965950564673,
      "472": 6.157087185625288,
      "473": -2.0439138338446434,
      "474": -0.5146633726481311,
      "475": 7.701891882517854,
      "476": -0.18705159437144828,
      "477": 3.0240980516841267,
      "478": -3.248004783577287,
      "479": 9.594672185514346,
      "480": -2.6497274485035662,
      "481": -0.5311777487155165,
      "482": 1.058537302709657,
      "483": 5.124166398120833,
      "484": 3.814794977787453,
      "485": -6.618828338764964,
      "486": -1.2619822726907024,
      "487": -3.3792601302520886,
      "488": 6.147506921325075,
      "489": -0.9571454636132203,
      "490": -0.34808169485349055,
      "491": 0.9216188277935664,
      "492": 2.287888855315051,
      "493": -10.935784591085863,
      "494": 2.6617178004382858,
      "495": 6.414228369635345,
      "496": 9.105989765659407,
      "497": 0.007056471177348658,
      "498": 5.680720102785151,
      "499": -2.120418640137534,
      "500": -4.715834621669149,
      "501": 0.07489568379890661,
      "502": -3.370964319316379,
      "503": 0.9384080156522413,
      "504": -0.09669230219711374,
      "505": -4.0808287127466505,
      "506": -5.1468997189967585,
      "507": -0.3981671140291358,
      "508": -4.821032514763415,
      "509": 5.261690764460821,
      "510": 5.444044110182451,
      "511": 0.1029433004113134,
      "512": 0.2415637355290948,
      "513": -4.098371512960934,
      "514": -6.015658323549367,
      "515": 1.6889067706018503,
      "516": 3.4238461567708356,
      "517": -2.340184842637492,
      "518": 2.869290973883949,
      "519": -2.959410042009994,
      "520": -10.824097131169788,
      "521": 2.2531843048759552,
      "522": -2.5666316260250666,
      "523": -4.43651930419244,
      "524": -1.9123614758560157,
      "525": -1.4636445517101202,
      "526": 10.696754653247234,
      "527": -1.4176555162823397,
      "528": 5.418916392246241,
      "529": 9.504363280194845,
      "530": 11.102103553819036,
      "531": 8.15666533342692,
      "532": 5.769848706453148,
      "533": -2.199560729114139,
      "534": -5.344894944451717,
      "535": 4.561749708564636,
      "536": -2.8745955341685137,
      "537": 1.7457351822632499,
      "538": 2.27664486470677,
      "539": 2.9412620567735135,
      "540": -1.5320217738216337,
      "541": 4.245992474892431,
      "542": 2.3903509618483647,
      "543": -3.2533642749758847,
      "544": 0.4360595281921834,
      "545": -10.468654784578497,
      "546": 6.3583293671261565,
      "547": 1.2891649319447325,
      "548": -0.027278413086462724,
      "549": 6.832336165608581,
      "550": 1.4635990328800335,
      "551": 4.43126650152262,
      "552": -2.701950318228115,
      "553": -0.7678992708229544,
      "554": 0.7337169668768262,
      "555": 7.3797918190885685,
      "556": 0.4253033931532081,
      "557": -7.903985662905834,
      "558": 3.120491222348012,
      "559": -5.937569971135789,
      "560": -3.69986681465688,
      "561": -4.3355791041907725,
      "562": 1.09310139373049,
      "563": 1.7216723981020792,
      "564": -2.6574855810962106,
      "565": 3.449802289266687,
      "566": 1.795925583951754,
      "567": -2.4703847240320616,
      "568": 4.074314749429513,
      "569": 5.401936271156404,
      "570": 4.327692801749445,
      "571": 1.9043825616818575,
      "572": -0.4523976539546276,
      "573": -3.472522335211685,
      "574": -13.036982297844077,
      "575": -1.9983363549146111,
      "576": 6.47093848554975,
      "577": 1.0250187641227064,
      "578": 3.6617743835383347,
      "579": -10.206614160874581,
      "580": -12.408446891653462,
      "581": -5.918943511154577,
      "582": -0.9936000100178897,
      "583": 3.3774556179789395,
      "584": 8.104147795108032,
      "585": 4.920743383759684,
      "586": 6.256461475520827,
      "587": -0.05758616338973406,
      "588": -6.644030326689106,
      "589": 4.706144790097513,
      "590": -1.9713537165797441,
      "591": 2.5918703487678454,
      "592": 0.952626737845219,
      "593": -2.1255487179855588,
      "594": 3.277425592849907,
      "595": 4.559610326132208,
      "596": -7.497647359484284,
      "597": -4.148082259524446,
      "598": 5.2081813507164085,
      "599": 6.566361786607049,
      "600": -6.705645267919074,
      "601": 1.667551727411339,
      "602": -6.816990810692506,
      "603": -10.463043471061573,
      "604": -3.2045132453927483,
      "605": 2.785044739731584,
      "606": -1.6197890459873345,
      "607": 4.449723742482993,
      "608": -0.5645858231397679,
      "609": -1.2952846883170734,
      "610": -6.102869745397269,
      "611": -2.322011063661257,
      "612": 0.5373675255951905,
      "613": 3.1713829204115567,
      "614": 1.0661844089130696,
      "615": -0.7341335297956169,
      "616": -0.551641417797587,
      "617": -4.974300672683523,
      "618": -5.198899176962571,
      "619": 2.4437999739981247,
      "620": 0.5737457597614716,
      "621": 0.73261391613103,
      "622": -8.970859148447984,
      "623": -9.278588862296512,
      "624": -0.35801155084917236,
      "625": -2.4588283367634527,
      "626": -1.5367766711362123,
      "627": -1.457667582435839,
      "628": -3.573608341882409,
      "629": -6.130816720483756,
      "630": 9.552750226742704,
      "631": 1.310150637692163,
      "632": 0.4819390535882309,
      "633": -1.2796214880330135,
      "634": 7.367616757878638,
      "635": 4.247719702489393,
      "636": 0.9621061716011722,
      "637": -0.2547995492911752,
      "638": 1.5369725030931265,
      "639": -0.44177236735827435,
      "640": 2.1621604558758527,
      "641": 5.914804022160939,
      "642": 1.4590873332233916,
      "643": -6.448604568822771,
      "644": 1.0419074765699443,
      "645": -6.303328867187789,
      "646": -0.4886708738162815,
      "647": 6.410026667780001,
      "648": 1.1084327106056138,
      "649": -3.3709120165405757,
      "650": -1.217583167214967,
      "651": -2.1624497152125097,
      "652": -0.7550624115336957,
      "653": 5.3163255289856615,
      "654": -0.16459644432959397,
      "655": -11.945913008303569,
      "656": 1.0028395969715682,
      "657": 7.1460929103309745,
      "658": -3.315689066729673,
      "659": -11.002312752639016,
      "660": 0.459458783879485,
      "661": 2.798266441540371,
      "662": -4.808521666068425,
      "663": 0.6713805570804032,
      "664": 3.4311720073203804,
      "665": -0.7836795430659895,
      "666": -8.345837219981988,
      "667": 0.20810121441219642,
      "668": 7.896475863896696,
      "669": -8.001425743909722,
      "670": 0.19952446096912063,
      "671": -5.18343625942449,
      "672": 5.8549131426671135,
      "673": -4.918261070398438,
      "674": 0.6740443355700594,
      "675": -7.305845174571017,
      "676": -1.0607919903046843,
      "677": 2.030166499565574,
      "678": -0.6769722076624818,
      "679": 2.9099998647605507,
      "680": 4.119733337444507,
      "681": -2.455899235340162,
      "682": -4.5601707341885485,
      "683": 0.8639356212271708,
      "684": 1.375393676748289,
      "685": -7.019131774636373,
      "686": 5.015611099915817,
      "687": 0.9986972992601979,
      "688": -1.2995517166496338,
      "689": -0.052389133274200486,
      "690": -1.2160637592104409,
      "691": -1.2517870715379562,
      "692": -5.078435281786021,
      "693": -2.0112700295001664,
      "694": 9.47346452221026,
      "695": 0.466988396010482,
      "696": -2.570187687822257,
      "697": -1.5228103028421256,
      "698": 2.6029004515768226,
      "699": 1.6025486554509267,
      "700": 6.495328068809537,
      "701": -5.100067442285126,
      "702": -10.117090725026676,
      "703": 1.6478693549547803,
      "704": 0.04082953732017328,
      "705": 1.3929585951866936,
      "706": 0.8153116505436613,
      "707": 3.014798584661504,
      "708": -4.880829273821075,
      "709": -0.7008418470621849,
      "710": -0.2982998406284661,
      "711": 2.38474957976809,
      "712": 4.180860974527212,
      "713": -3.387183904773999,
      "714": -0.7471183790452133,
      "715": 3.4458900926632614,
      "716": -2.155799071544392,
      "717": -7.3916134116548085,
      "718": 2.4060234947812433,
      "719": 5.689639025366256,
      "720": 1.4265821313464015,
      "721": -3.3580537664645442,
      "722": -1.3691097813892286,
      "723": -0.6463654478195777,
      "724": 3.279368295182351,
      "725": 1.8203759600454321,
      "726": 3.298406337044407,
      "727": 2.253646031573238,
      "728": 0.15626221401557203,
      "729": 2.3231970755773963,
      "730": 5.037306730629583,
      "731": -3.188562879998567,
      "732": -0.7175206556880528,
      "733": -4.251572036860048,
      "734": 1.4859405550954203,
      "735": -0.38125640775951414,
      "736": 1.1078614787657186,
      "737": -7.9280839926717706,
      "738": -10.634485939992206,
      "739": -0.7251381476387385,
      "740": -11.353747398395967,
      "741": 0.8316540303059489,
      "742": 3.0523774646877486,
      "743": 0.26118612986389544,
      "744": 6.376024986886708,
      "745": 1.6986828781034482,
      "746": -4.872500166271485,
      "747": -2.0754687588190586,
      "748": -0.740204419961028,
      "749": 2.8878923652056327,
      "750": -4.618779047301792,
      "751": 3.7297530788671054,
      "752": -2.1198916179971183,
      "753": 0.050013968867871336,
      "754": 0.5270442597734636,
      "755": 5.071465510801321,
      "756": -0.41556629283975643,
      "757": -4.029054865785825,
      "758": 6.262250676819193,
      "759": -2.3334829555572854,
      "760": -4.2905158409132955,
      "761": -3.254811161061502,
      "762": -3.597534261579717,
      "763": 4.325504863533628,
      "764": -4.437787614390852,
      "765": -5.566778915740041,
      "766": -2.4189871438098063,
      "767": -0.1430470942926682,
      "768": -0.7085338396116277,
      "769": 2.7776535157153206,
      "770": 1.5834992875713054,
      "771": 3.0742955670023755,
      "772": 2.2075858474893932,
      "773": 0.338231947484412,
      "774": -8.24633201673703,
      "775": -2.4621859937380965,
      "776": -3.333163968512324,
      "777": 2.8627066288064795,
      "778": 0.5488423003537585,
      "779": -3.5380732550444494,
      "780": -1.3035620882445695,
      "781": -2.0317801040784564,
      "782": -16.532398870925476,
      "783": -2.4624509246908137,
      "784": 3.3312649129933374,
      "785": -9.76937754789133,
      "786": 7.267300409697036,
      "787": 4.482820114841872,
      "788": -2.0881501547982215,
      "789": 0.6069204691889383,
      "790": -3.143046653170289,
      "791": -10.219004377445064,
      "792": -7.1020463871339565,
      "793": -0.411830478222539,
      "794": 0.014025889830175652,
      "795": 0.1070264549076153,
      "796": 2.1369996981663384,
      "797": -1.1733519779481003,
      "798": -2.069154442290455,
      "799": -4.9694064763403984,
      "800": -4.847655879436664,
      "801": -1.011616215497783,
      "802": -3.1811654872385526,
      "803": 0.5670745514096898,
      "804": -0.18453147992354949,
      "805": 1.7940837935160403,
      "806": -1.568334554297468,
      "807": 0.8960852949318459,
      "808": -2.8325442322123435,
      "809": 12.91425350438735,
      "810": -2.446958044212543,
      "811": 4.559251970630754,
      "812": 0.729113881339557,
      "813": -6.219674792289333,
      "814": 2.2798459523409416,
      "815": -1.793990128280618,
      "816": -2.415465747016641,
      "817": 2.5622606588814496,
      "818": 0.5301082042170198,
      "819": -2.0928608143124032,
      "820": 3.372853309759995,
      "821": 0.9598753901913618,
      "822": 4.186604104002365,
      "823": 8.975172291741718,
      "824": -7.11066755334374,
      "825": 2.119065280458231,
      "826": -2.775882816245228,
      "827": 2.2939866328891556,
      "828": 7.398635383386021,
      "829": 3.944882905046756,
      "830": 0.6957527571065978,
      "831": 1.3777113799281535,
      "832": 3.651949611929167,
      "833": 0.9490406713750158,
      "834": 8.277025742873374,
      "835": -2.501972562511447,
      "836": 2.9871814185551573,
      "837": -0.37100984788308516,
      "838": 4.532611622596855,
      "839": 0.6402852434567974,
      "840": -0.7339153252258382,
      "841": -2.5482270111539185,
      "842": 3.9591019887934857,
      "843": -5.881525062481916,
      "844": 4.5402079855823345,
      "845": 0.6596915667601287,
      "846": -4.342259065411713,
      "847": -1.913061856723623,
      "848": 1.818717298723185,
      "849": 8.409076842383504,
      "850": -4.305431230260235,
      "851": 1.025843076839135,
      "852": 4.620760032643567,
      "853": 3.6341812970196554,
      "854": -9.148175853234878,
      "855": 0.7209287625914228,
      "856": -2.1043226569181375,
      "857": -6.634867731028387,
      "858": 1.431581671221418,
      "859": -0.42367500313105916,
      "860": -4.479671430994939,
      "861": -1.4875037806288114,
      "862": 0.690311747989105,
      "863": 5.2117682146595925,
      "864": -3.423507827031481,
      "865": -3.914296302581779,
      "866": 1.532193499973328,
      "867": 0.24970161276736014,
      "868": -8.619594828303752,
      "869": -3.325190608748338,
      "870": -2.5488329160165173,
      "871": 3.0052913611678385,
      "872": -7.703378733609241,
      "873": 0.23938355646691867,
      "874": -0.8436815596717738,
      "875": 0.45739005655105064,
      "876": -0.9425440453847914,
      "877": 3.184611750756158,
      "878": 1.9767412824323756,
      "879": 3.8381070294807054,
      "880": 1.0762461378781858,
      "881": -1.4101567325318107,
      "882": 1.1147524006022589,
      "883": -0.936004948625067,
      "884": 5.359918950583633,
      "885": 1.198763478455947,
      "886": -8.355347849740031,
      "887": 2.3895618281171096,
      "888": 3.625175395414585,
      "889": 4.5673406506738266,
      "890": 6.892073230160186,
      "891": 1.673082024561347,
      "892": -4.749886316490299,
      "893": -5.758957539664688,
      "894": 0.9515906263591042,
      "895": -4.463679286428206,
      "896": 0.550569236325706,
      "897": -0.925055031878106,
      "898": 9.583916466676468,
      "899": -4.892293977551128
    }
  },
  "bi0": {
    "n": 30,
    "d": 1,
    "w": {
      "0": 4.937447553270264,
      "1": -0.08644109228163148,
      "2": -2.5548388503091175,
      "3": -0.5424120031954371,
      "4": -1.9781537899573904,
      "5": 3.3749854215559827,
      "6": 0.727278751220985,
      "7": 1.0398093497978667,
      "8": 4.851318957199115,
      "9": 1.353157876108846,
      "10": -4.740946502952597,
      "11": -2.4716487733790515,
      "12": -7.5922894895312965,
      "13": -1.291210915026912,
      "14": 1.3910180442250344,
      "15": -0.9798166760142599,
      "16": -0.9846017712502284,
      "17": 3.1005685045913927,
      "18": -1.226451686146475,
      "19": 2.851015016582731,
      "20": 6.893349757126118,
      "21": -2.7862809420351553,
      "22": 1.6118448293163141,
      "23": 6.439213416834671,
      "24": 2.5747592651516276,
      "25": -1.3111612891312674,
      "26": 1.427933814684548,
      "27": 2.318438216924275,
      "28": -1.7665418609958112,
      "29": -0.6119308438387104
    }
  },
  "Wfx0": {
    "n": 30,
    "d": 10,
    "w": {
      "0": -2.1171179026866787,
      "1": 5.30935338412986,
      "2": -0.3682500677323312,
      "3": -3.349311587859839,
      "4": -2.7515981879153264,
      "5": 0.21089363037841832,
      "6": 3.0000431764089464,
      "7": 1.2721489371974641,
      "8": 2.5923094138933926,
      "9": -2.759463227039929,
      "10": -2.9446493598397785,
      "11": 0.28543304609008646,
      "12": 1.4990029689608333,
      "13": -0.6604381613141314,
      "14": -7.694637215554034,
      "15": 1.524195354040363,
      "16": -0.9506053184846818,
      "17": -2.525377546616938,
      "18": -3.158150487473403,
      "19": 2.8321832910865936,
      "20": 3.219952672391988,
      "21": 1.620311252272908,
      "22": -3.6054002000831016,
      "23": -3.8582364159227716,
      "24": -0.7880491582713611,
      "25": 1.5816201996123531,
      "26": 2.5324979593120407,
      "27": -1.4964758163943195,
      "28": 1.2569047935572146,
      "29": -1.244377043272794,
      "30": -3.1904230456306286,
      "31": 0.18803066378822492,
      "32": 3.7757328603687954,
      "33": 2.6048776066404167,
      "34": -2.331806736187155,
      "35": -2.648115048837153,
      "36": 6.463029075269368,
      "37": -2.393905452748135,
      "38": -1.6144109120892531,
      "39": 2.3678899856902276,
      "40": 7.082714413347855,
      "41": -3.8051750466799406,
      "42": -0.9634591340739282,
      "43": 4.4757179827003215,
      "44": 1.4098525836149358,
      "45": 1.6716384864625071,
      "46": -0.7194679792584016,
      "47": 1.0635071423585283,
      "48": 3.549982688988506,
      "49": -0.20377935822415452,
      "50": -0.3689156517668649,
      "51": 4.323961888654227,
      "52": 0.5624920971581221,
      "53": 3.601314726136028,
      "54": -4.340617984201089,
      "55": 3.196373222760788,
      "56": -3.9316299854204266,
      "57": 1.1016003747967944,
      "58": -3.388788049271387,
      "59": 3.440105498658719,
      "60": -0.47020540198668787,
      "61": -3.1123745053007736,
      "62": -3.0995113854767937,
      "63": 2.122514066763896,
      "64": 3.3602616882706293,
      "65": 1.3310577116227142,
      "66": -4.167641545596672,
      "67": 3.374399851033991,
      "68": 5.466912756377356,
      "69": -4.7327999610477915,
      "70": -6.7819116164936615,
      "71": 1.0183259551836041,
      "72": 2.4597099154584643,
      "73": 4.6687876617041315,
      "74": 3.2920943717871123,
      "75": 2.921513181740767,
      "76": -1.408457353069323,
      "77": -0.9007474692574275,
      "78": 0.987649847451692,
      "79": -5.626384764692419,
      "80": -4.4697190302854395,
      "81": -1.6562696472276377,
      "82": -2.3297156854027947,
      "83": 5.206761812428021,
      "84": -2.5204646013084653,
      "85": -4.978084047238712,
      "86": -3.5734588169907173,
      "87": 1.2705773838404086,
      "88": 1.4223699790477096,
      "89": 0.49962374112992836,
      "90": 2.8723551143562234,
      "91": -0.8515249251056821,
      "92": 4.0250382290002475,
      "93": -1.2722952591787522,
      "94": -0.782860028432132,
      "95": 0.9612789474538406,
      "96": -0.9945731217947812,
      "97": -0.4649837932721765,
      "98": 0.41883274285491745,
      "99": -2.3666505850555626,
      "100": 0.7344201846385852,
      "101": 0.16857941023390363,
      "102": 6.344755584369854,
      "103": 3.4910832675495955,
      "104": -1.0735924478781198,
      "105": -1.7385189281572022,
      "106": -2.782033727802495,
      "107": -3.657080922204564,
      "108": 1.7312029444722612,
      "109": 7.085795208832973,
      "110": 2.3615191716398582,
      "111": 2.4257447424448886,
      "112": 2.3032467004937955,
      "113": 0.30051763368272516,
      "114": 1.3271970989125499,
      "115": 0.29880113633205174,
      "116": 1.7126549204088006,
      "117": 1.0121071073686545,
      "118": 2.659054298572176,
      "119": -1.9325039056941171,
      "120": 3.05594906502574,
      "121": -1.3659067558741314,
      "122": -2.246618552911975,
      "123": 1.6922273649971817,
      "124": 0.36283877892347327,
      "125": -0.04201761848379876,
      "126": 2.5293506030152475,
      "127": 1.530214105541225,
      "128": 0.013491577185603537,
      "129": -1.9069188103762411,
      "130": 1.5881287938606925,
      "131": -0.6370225929219008,
      "132": -0.4736711667312728,
      "133": 0.02298706557286166,
      "134": 0.33259109040065127,
      "135": -1.5289072997671085,
      "136": -1.6606133399784406,
      "137": 0.6243010973452714,
      "138": 0.16143267188109153,
      "139": -2.2400072931627037,
      "140": 2.624962296863108,
      "141": -1.9200274240638908,
      "142": 0.2645048277518253,
      "143": -1.6257977440804925,
      "144": 1.038054915835489,
      "145": 3.343855872267825,
      "146": -0.6030978321078823,
      "147": 1.6368002621069726,
      "148": -3.297771961770244,
      "149": -2.318997445465296,
      "150": 0.7156939373871445,
      "151": -3.3503106769057487,
      "152": 1.6355553758019492,
      "153": 3.049935049079651,
      "154": 2.1989570798134817,
      "155": 0.014053933605493105,
      "156": -1.3297263865347106,
      "157": 0.6288351507661373,
      "158": 0.4100915613904297,
      "159": -1.144584651342705,
      "160": -3.2535678661823604,
      "161": -0.13449274728517302,
      "162": 2.37291894583718,
      "163": 3.632180808992442,
      "164": 0.6981387867247225,
      "165": 2.2752268084856504,
      "166": 2.2011712457039208,
      "167": -5.786464556846141,
      "168": 6.568441477348961,
      "169": -2.8205754691647686,
      "170": -4.84443945589762,
      "171": -1.9919608970076892,
      "172": -4.297044366550302,
      "173": -0.5508338073329816,
      "174": -8.324118125236613,
      "175": -2.1950279442438196,
      "176": 2.3915039903763264,
      "177": 2.657581337967293,
      "178": 2.944234015222863,
      "179": 1.849352909872499,
      "180": 1.941707165838134,
      "181": 0.5401877744638142,
      "182": -1.1492916167031026,
      "183": 0.6416893115985794,
      "184": -2.359629407807904,
      "185": -0.8032571946219231,
      "186": 1.7460337500745444,
      "187": -1.0207798670811576,
      "188": 2.1630622936250776,
      "189": 0.0216865195724398,
      "190": 0.7493336400722626,
      "191": 4.273483243460404,
      "192": 3.1543812724726705,
      "193": 0.6951919767136406,
      "194": 2.6636720317805467,
      "195": -0.0565936738145601,
      "196": 1.252399079033825,
      "197": 1.6603239470989022,
      "198": -0.6326928995845811,
      "199": 1.4294925770645048,
      "200": -2.104617331827611,
      "201": 1.051858695178607,
      "202": 1.6940821447810954,
      "203": 2.0519153739832925,
      "204": 1.4551916758336019,
      "205": 2.20815592441668,
      "206": 1.4513256270116839,
      "207": -6.24637420149441,
      "208": 3.3520665734189588,
      "209": 0.040127652956590154,
      "210": 2.506502611879753,
      "211": -2.0499608111339134,
      "212": 3.579297073412322,
      "213": 7.449134955731586,
      "214": -4.459861263316256,
      "215": -1.7589155424648366,
      "216": 1.3363232773060552,
      "217": 3.184956188575041,
      "218": 1.0626363516240023,
      "219": -2.1928933360382388,
      "220": -1.2576821062981007,
      "221": 1.5945040233268681,
      "222": 1.9652591326138535,
      "223": -2.396710150403974,
      "224": 4.467991073201397,
      "225": -0.2566921192315443,
      "226": 4.314279951692373,
      "227": 2.9517307760819844,
      "228": 5.799091979433966,
      "229": -11.694367646442313,
      "230": 4.0304648096199465,
      "231": -2.4929502014392098,
      "232": -3.683681474672766,
      "233": -2.413069935840857,
      "234": 0.15863355233975002,
      "235": -0.046307502947930845,
      "236": 4.00541319561117,
      "237": 0.6078016660350604,
      "238": -1.6301569325235434,
      "239": -0.7567450019080197,
      "240": 1.2421118076534912,
      "241": 0.436496359762906,
      "242": -4.692310078601166,
      "243": -2.2358718849548,
      "244": 0.42374296556175317,
      "245": 4.1349540629419295,
      "246": 3.240068981549316,
      "247": 1.6931033785132128,
      "248": 2.010658141797291,
      "249": 1.0036343987554421,
      "250": 2.880919480436822,
      "251": -3.02417227844237,
      "252": 1.1259578673687873,
      "253": -2.0464326746779204,
      "254": -2.608667319726375,
      "255": -1.4902442672206895,
      "256": 4.16907698371352,
      "257": -0.6202753155352879,
      "258": 2.2274714931669193,
      "259": 2.5149383196513586,
      "260": 2.0712672988008367,
      "261": 2.609185468568806,
      "262": -2.250448087904956,
      "263": -0.6646294891708756,
      "264": 4.3133899998405285,
      "265": -3.080031162210893,
      "266": 1.3616977372124968,
      "267": -1.2769525027642878,
      "268": 0.448627770121925,
      "269": 0.6515261142706588,
      "270": 4.276155979055048,
      "271": -4.142683488931271,
      "272": -3.024183798784662,
      "273": -0.014582978947579735,
      "274": 1.8923282449277703,
      "275": -0.08704899772338755,
      "276": 3.210052589958922,
      "277": -0.10723947997100515,
      "278": 1.2709686751809293,
      "279": -3.431774477333459,
      "280": -2.2884011996711155,
      "281": -0.8798418053275541,
      "282": -2.1751332393216645,
      "283": 7.059089813193399,
      "284": -4.470457847508654,
      "285": -3.61824062765783,
      "286": 0.6603066903495677,
      "287": 2.1707223303059417,
      "288": 1.6386092261688645,
      "289": -0.2720904169672495,
      "290": 3.1156391037979096,
      "291": -1.4001967650096128,
      "292": -0.40507454495646456,
      "293": 4.853880230971698,
      "294": 2.598549917167263,
      "295": 1.3893008099441733,
      "296": 1.7331314043060737,
      "297": 4.312695012688017,
      "298": 2.4262015982741296,
      "299": -0.8360890581475113
    }
  },
  "Wfh0": {
    "n": 30,
    "d": 30,
    "w": {
      "0": -2.320355967653007,
      "1": -6.261568706453633,
      "2": 5.310173713198154,
      "3": -4.877637056296913,
      "4": -0.7794888451120181,
      "5": -5.4654628960533085,
      "6": 11.54341524911363,
      "7": -3.571703184530791,
      "8": 1.5211994730599923,
      "9": 3.7406163136776036,
      "10": 0.02552725382993967,
      "11": 7.527805636986783,
      "12": 0.7970449683128522,
      "13": 2.139143457587333,
      "14": 1.9216357889393603,
      "15": 6.783787972330459,
      "16": 2.132995246789345,
      "17": 6.750356522996861,
      "18": -3.9707510219088884,
      "19": -6.667447200329385,
      "20": -6.24666729201635,
      "21": -5.959041823301278,
      "22": 5.849517186789627,
      "23": 2.895095803907204,
      "24": 2.178331811370925,
      "25": 1.0409417654675217,
      "26": -3.207142106228388,
      "27": -1.253766290424169,
      "28": -2.632402861011775,
      "29": 1.8910534572803581,
      "30": -1.6159332862217886,
      "31": -5.437206565894822,
      "32": 1.7823361368493364,
      "33": -1.1379322863872434,
      "34": -7.686804079439572,
      "35": -0.7398900905665671,
      "36": 3.83477783798062,
      "37": 4.544965937181133,
      "38": 2.8932996938451447,
      "39": 0.6979099072683839,
      "40": 0.5887258204791639,
      "41": -1.6979044557146183,
      "42": 13.687400709385019,
      "43": -2.5417249188102624,
      "44": 2.5583658228333186,
      "45": 5.216681104018434,
      "46": 4.701759461443247,
      "47": -3.42919282514809,
      "48": 2.186990061014017,
      "49": 0.52721569053651,
      "50": -1.0623314948951808,
      "51": -1.843337021135206,
      "52": -5.617643562416893,
      "53": -3.9328985676270096,
      "54": 1.1862134261422297,
      "55": 4.731069137927239,
      "56": -1.0477428150604293,
      "57": -1.5178874184700843,
      "58": 7.68463226033599,
      "59": 3.133679436660952,
      "60": 6.125876453913845,
      "61": -2.573549898681664,
      "62": -5.586386690303027,
      "63": -3.1876040029067556,
      "64": -0.12547376025756452,
      "65": -1.7131190952729436,
      "66": -0.8031590127059962,
      "67": -6.336872699985343,
      "68": -4.29967343892346,
      "69": 6.81953828071536,
      "70": 0.531460467221148,
      "71": 4.118836284484032,
      "72": -3.665353575266647,
      "73": 3.692657128038867,
      "74": -2.3082067070660557,
      "75": 4.580835402150418,
      "76": 0.2841488642100563,
      "77": -7.198187237629183,
      "78": -9.883026381898228,
      "79": -0.15547924998096535,
      "80": -4.2566220171165785,
      "81": -6.854876409501627,
      "82": -0.3579671000491925,
      "83": 0.8642224569416843,
      "84": -3.2959387175266364,
      "85": 7.331125554390833,
      "86": 0.7835668672436547,
      "87": -0.718221695299898,
      "88": -0.007369435408890502,
      "89": 3.389815547137634,
      "90": -14.13430600588473,
      "91": -2.298062834939601,
      "92": -0.08851938403493881,
      "93": -2.924982184406558,
      "94": -1.6217495516477805,
      "95": -5.827357058289346,
      "96": 10.023513172728268,
      "97": 1.0868596763822707,
      "98": 5.82454727108551,
      "99": 0.6673069527575031,
      "100": 3.6646060360002037,
      "101": 0.4819005615475231,
      "102": 3.7423388200714913,
      "103": 1.8817721318537617,
      "104": 1.9353081200726001,
      "105": 4.123231384548266,
      "106": 5.16409200642091,
      "107": 6.74465267419807,
      "108": 2.1251558727248883,
      "109": -2.230494455657016,
      "110": -3.1302732776849025,
      "111": 0.28912944992290296,
      "112": -4.510848747646955,
      "113": -3.868537538385211,
      "114": -0.2602417590108642,
      "115": 5.414560376817701,
      "116": -4.7023982263046165,
      "117": -2.857761890001595,
      "118": 4.672010636153887,
      "119": -2.071635753801344,
      "120": 0.4768402845089556,
      "121": -4.944204451577422,
      "122": 4.651488905007428,
      "123": 4.998703167296254,
      "124": -0.2753496965439367,
      "125": 2.623428554954932,
      "126": -5.486212002310509,
      "127": -1.1380630166236254,
      "128": -0.47950567017843027,
      "129": 2.5401803153302702,
      "130": 15.37887042551049,
      "131": -3.2123454466446004,
      "132": 7.078356335197361,
      "133": -6.593199338214019,
      "134": -4.128687715080212,
      "135": -0.21506800587363573,
      "136": 9.995741718569041,
      "137": 0.019325340032803413,
      "138": -7.364009176703416,
      "139": 4.662826780907449,
      "140": 2.8174729529500273,
      "141": -1.8885903401329918,
      "142": 3.6737455477618695,
      "143": 2.9286592673236074,
      "144": 0.5613643501790018,
      "145": 4.090341829213451,
      "146": 5.976794569843545,
      "147": -1.4138361072992447,
      "148": 4.368042999831481,
      "149": -0.07755533985330668,
      "150": 9.144150936520509,
      "151": -1.9192612727330092,
      "152": 0.20275812365546858,
      "153": -3.8322103457141368,
      "154": 1.2114819898734388,
      "155": -7.502989161131707,
      "156": 1.9761039706927888,
      "157": 8.25522809322834,
      "158": -0.2263355918917095,
      "159": -3.12668948265349,
      "160": 1.2518485884058121,
      "161": -1.5662451399188297,
      "162": 0.5676635276289302,
      "163": -0.46682362794733734,
      "164": 4.902104659430407,
      "165": -1.712264136314358,
      "166": 5.767043748324627,
      "167": -10.085990189957826,
      "168": -3.0633471592542945,
      "169": -11.337718486781835,
      "170": -5.650347651245523,
      "171": -0.9571186608766026,
      "172": 4.584515806043721,
      "173": -2.0594101691532174,
      "174": 6.274896848691561,
      "175": 2.7047144297204184,
      "176": -3.143104910667161,
      "177": -1.242714305812322,
      "178": -6.3436869398917075,
      "179": 3.451783937813858,
      "180": -0.6611653570077731,
      "181": -7.909360845281001,
      "182": 0.5950819121063722,
      "183": 7.040571601879864,
      "184": 5.708750830440692,
      "185": 0.5450206388871335,
      "186": 2.4374964800314616,
      "187": 0.6071383376939361,
      "188": -1.4426209686780136,
      "189": -3.450419759521439,
      "190": -8.125503473572685,
      "191": 5.305805129514486,
      "192": 5.696375986191715,
      "193": 2.6355895351550944,
      "194": 4.765071497169799,
      "195": -0.21479082199484215,
      "196": -3.764264949493038,
      "197": 7.053429615090851,
      "198": 7.611436687711752,
      "199": -0.6435472837655664,
      "200": -3.31856372908952,
      "201": -5.164725317110483,
      "202": -3.8057701678093223,
      "203": -9.217006036938441,
      "204": -0.31022215768776906,
      "205": -0.6569598283430708,
      "206": 1.3380277638551399,
      "207": -0.47162966437663767,
      "208": 2.1530338280577164,
      "209": -4.724496205478429,
      "210": 2.6930982363251363,
      "211": 2.0450807255920593,
      "212": -6.022693597907609,
      "213": 0.43374146953569326,
      "214": 7.2167733377549395,
      "215": 2.290424158616628,
      "216": -1.2397065073225122,
      "217": 13.258380067795239,
      "218": 0.23604327186723856,
      "219": -0.6588814265223053,
      "220": -1.456586084737875,
      "221": -3.364713373260617,
      "222": 0.4943157677080568,
      "223": -3.654428131602055,
      "224": -5.207968890245356,
      "225": 0.7676770933077056,
      "226": -5.576506416232669,
      "227": 1.9165405101203328,
      "228": -1.047627449035039,
      "229": 4.197348439175993,
      "230": 2.2213637994831124,
      "231": 3.3900085194073464,
      "232": 1.3595458812663452,
      "233": -2.5008702917917085,
      "234": -1.0299814964993688,
      "235": 8.401685635307382,
      "236": 1.539880488166337,
      "237": -1.778442007565162,
      "238": 1.650367080155464,
      "239": 9.12464063907683,
      "240": -12.553056291355722,
      "241": -0.4326816084667455,
      "242": 1.3572989972904297,
      "243": -5.781683256732405,
      "244": -12.003902208759758,
      "245": 0.45145366715073554,
      "246": 0.8698432607158174,
      "247": 10.57112993492813,
      "248": 4.877688817292503,
      "249": 3.4853918751079176,
      "250": 5.588838409502267,
      "251": 5.228008742887503,
      "252": -4.359944371279312,
      "253": -2.2992818715088505,
      "254": 2.7026673527218357,
      "255": 1.9330983849149364,
      "256": 3.878124827384163,
      "257": 2.0398174129996685,
      "258": 7.299985526968489,
      "259": -0.7508153201155616,
      "260": -2.271533080578828,
      "261": 0.32230925844212466,
      "262": -0.7678780517216357,
      "263": 5.617724611075636,
      "264": -1.8556534166971914,
      "265": 7.307014993494824,
      "266": -1.8715804878818365,
      "267": 1.972965758588864,
      "268": -2.7920025670718367,
      "269": -6.826356007692841,
      "270": 8.262238682601009,
      "271": -2.9019678430804743,
      "272": -2.8114244196920772,
      "273": 0.5062234779596858,
      "274": 4.668290957964398,
      "275": 2.7498858340928387,
      "276": 2.829864269028822,
      "277": 4.813883625977217,
      "278": -2.327469532371118,
      "279": 0.37690344737922493,
      "280": -4.144547766323985,
      "281": -5.595879105704979,
      "282": 0.7032845296711936,
      "283": 2.4959988458942584,
      "284": -0.3722162331071364,
      "285": 6.927809090873872,
      "286": 2.2913862765235185,
      "287": 2.7545940060855716,
      "288": -3.68151632938,
      "289": -3.7134553463866347,
      "290": -2.0940254733913153,
      "291": 4.887828578623083,
      "292": 0.46286488225767475,
      "293": -4.099466812053969,
      "294": 8.840458100776232,
      "295": 5.581063612396926,
      "296": -11.553546707021365,
      "297": -3.9317193168069395,
      "298": -1.5980481930374661,
      "299": 3.620664383976587,
      "300": -0.9963127416023213,
      "301": -3.847198012618536,
      "302": 2.5397330426932085,
      "303": -0.7358524711188766,
      "304": -1.783574272456787,
      "305": 1.6470677137334364,
      "306": 1.5833518212675728,
      "307": -0.025255288043742868,
      "308": -0.9214230400756798,
      "309": 1.7604168199344585,
      "310": 6.212781854220617,
      "311": -6.730511129946498,
      "312": 1.8249259159634108,
      "313": -1.0170603753242975,
      "314": 1.9030309915906392,
      "315": 2.986666535663016,
      "316": -8.780308117039706,
      "317": 4.199183784966385,
      "318": -0.830549950222225,
      "319": 3.4948440160451835,
      "320": 2.697786346924836,
      "321": -10.032992732885766,
      "322": -13.152694606974757,
      "323": 0.4066900230340149,
      "324": 3.290140752195252,
      "325": -4.897497667105216,
      "326": 1.5533245517036032,
      "327": -0.45504204290737044,
      "328": 2.8372426941968483,
      "329": 0.7531371706210227,
      "330": 3.77347509787469,
      "331": -6.110237072077668,
      "332": -2.773532342489312,
      "333": -4.271105025503429,
      "334": 1.0750255078554418,
      "335": 3.1451112088991318,
      "336": -6.673067526278984,
      "337": -2.1078150309203703,
      "338": 15.575117966819038,
      "339": -3.4750848538216337,
      "340": -0.8950480572615865,
      "341": -2.046350942024549,
      "342": 8.09025192932634,
      "343": -2.5233265873138717,
      "344": 2.348450485464928,
      "345": 4.2145882148142935,
      "346": 1.7651495949360567,
      "347": 9.131720264697433,
      "348": 5.875699876887877,
      "349": 3.989875469618751,
      "350": 7.5853527643845515,
      "351": 6.8689169286343095,
      "352": -3.914996564479196,
      "353": 0.26891654996324055,
      "354": 4.212194538092837,
      "355": 4.823283090347052,
      "356": -2.054257671910384,
      "357": -2.13746963142265,
      "358": -7.419179830216344,
      "359": -10.067022396295338,
      "360": 2.5765834174609425,
      "361": -5.95159419361905,
      "362": -5.338011996345294,
      "363": -3.3996176160553975,
      "364": -6.867820862772432,
      "365": -5.177962540391301,
      "366": 5.150054721030828,
      "367": 7.9395486885758615,
      "368": -1.6130757709708683,
      "369": 5.012095896832821,
      "370": -4.034687093369704,
      "371": -2.6465113315931865,
      "372": -3.2035749332390844,
      "373": 1.1949754002954591,
      "374": 1.9852536226420279,
      "375": 1.8606814595335341,
      "376": 2.542322307450205,
      "377": 3.623139113140649,
      "378": -3.7754140347216136,
      "379": -11.170799316925274,
      "380": -15.133757968408862,
      "381": 1.7445933256927437,
      "382": -0.6140557937486747,
      "383": -2.477132214814413,
      "384": 2.678488168165913,
      "385": 3.69478034633327,
      "386": -5.830413934678329,
      "387": -2.133240863879314,
      "388": -0.6013912606973387,
      "389": -0.2984856246193402,
      "390": -5.546556634530385,
      "391": -1.223188141430308,
      "392": -4.93002582713868,
      "393": -2.9374550235883072,
      "394": 2.483811798808751,
      "395": -6.8312597572923535,
      "396": 2.1953147582266235,
      "397": 2.441393784826957,
      "398": 1.6309445465589962,
      "399": 4.566175363759301,
      "400": -6.8125702337415825,
      "401": -2.791696711723541,
      "402": -1.7535245117196643,
      "403": 1.410098153791336,
      "404": 2.422293502680459,
      "405": 2.0467934501913243,
      "406": 0.9377091529692196,
      "407": -4.692280060999409,
      "408": -2.688742423681038,
      "409": -9.288555457862438,
      "410": -8.791996468390165,
      "411": 1.3296966148160907,
      "412": -4.71247243229891,
      "413": -1.3933472090030377,
      "414": 3.5672828209390963,
      "415": 8.743200620071153,
      "416": -3.8298657358774055,
      "417": -6.624419550379825,
      "418": -2.033661066310799,
      "419": 5.171913184736329,
      "420": 1.7918870271284981,
      "421": -1.261364992409459,
      "422": 1.9032641766814766,
      "423": 4.22982986755587,
      "424": -3.776567057863841,
      "425": -8.0968729333532,
      "426": 7.494562674406767,
      "427": 3.699176976883321,
      "428": -0.07617391889032778,
      "429": -1.2526339921407295,
      "430": -1.4094555642253521,
      "431": -0.6575103120470649,
      "432": -6.135520860963152,
      "433": -5.296348795951591,
      "434": 7.606930829075366,
      "435": 5.993319733867406,
      "436": 8.617844584793014,
      "437": 4.634961455438364,
      "438": 7.128920575240046,
      "439": 1.1718224800638133,
      "440": 2.0350285979040166,
      "441": 5.860536128319179,
      "442": 4.343757386724637,
      "443": 3.0408963507687368,
      "444": -1.1662704064470202,
      "445": 2.0848498796595423,
      "446": -2.121498243910689,
      "447": -0.1801067948767432,
      "448": 0.26115247651165746,
      "449": -3.8982682515148106,
      "450": 0.27397433413441213,
      "451": 8.108185046988366,
      "452": -1.1839598734701713,
      "453": -10.700438530866657,
      "454": -10.718934730303763,
      "455": 2.2795471555313744,
      "456": -1.1680552127521995,
      "457": -0.9473869117041479,
      "458": 5.500280723715943,
      "459": -5.061980221592703,
      "460": 0.7591050766147638,
      "461": -2.2790973149251132,
      "462": -7.740460257560458,
      "463": 1.1906969471758495,
      "464": 2.987889042975645,
      "465": 4.203744250077775,
      "466": 4.907867523813452,
      "467": -3.9819252287948457,
      "468": 2.383577157179655,
      "469": 5.982239009836285,
      "470": 1.4799432686349059,
      "471": -0.4402050388987442,
      "472": -1.1358843032415973,
      "473": -0.9302863384929441,
      "474": 2.297631200576748,
      "475": 2.2204556477927424,
      "476": -2.323718054133761,
      "477": -1.3924001772547896,
      "478": -1.5452080667556318,
      "479": 4.726467455448472,
      "480": -0.5032640125731201,
      "481": -2.8502857500364214,
      "482": 2.0005962679341867,
      "483": 3.066545295138935,
      "484": 21.52701319696953,
      "485": -3.848054458812049,
      "486": -0.20455851762141078,
      "487": 4.853839586154788,
      "488": 3.047221499371439,
      "489": -2.9762783936534425,
      "490": 0.514408955506062,
      "491": 6.797254428721984,
      "492": -0.03202272716334146,
      "493": 11.356402537690307,
      "494": 3.740218123694209,
      "495": -2.314166859475752,
      "496": 2.560711640457787,
      "497": 5.5276241004339655,
      "498": 3.0785162831873203,
      "499": -0.8885976824956107,
      "500": 3.07963552492839,
      "501": 6.997409682181203,
      "502": -6.254461356922769,
      "503": 1.671897500682395,
      "504": 3.709029641888031,
      "505": 3.3954225528225543,
      "506": -7.2145928529117445,
      "507": 1.4836553679867057,
      "508": 9.051094969207103,
      "509": 0.5734198377528212,
      "510": -10.462108527708287,
      "511": 0.9768161873317381,
      "512": 4.840495643702199,
      "513": -0.40529604925754703,
      "514": 5.564606984246095,
      "515": -10.895404438607297,
      "516": 6.404654303350434,
      "517": 2.085950627941932,
      "518": -0.28609284969575555,
      "519": 4.620686603745536,
      "520": -0.7094343431617104,
      "521": 5.997172410870824,
      "522": 6.786886388050536,
      "523": -1.5173044159980813,
      "524": 0.678330561979177,
      "525": -0.9525803217307531,
      "526": -2.1576579778606,
      "527": 6.1263306398756106,
      "528": -3.323575376875944,
      "529": -2.192671779057497,
      "530": -1.5074538783529048,
      "531": -4.828751167868077,
      "532": 1.3619521210039645,
      "533": 0.9564748685821063,
      "534": -3.1277296312547462,
      "535": 0.07157783624086887,
      "536": 0.6530600473645772,
      "537": 0.9557403898127109,
      "538": 2.3137172350781525,
      "539": 2.546238415222324,
      "540": -1.5076587267389459,
      "541": -7.830134445184434,
      "542": -2.060314173739861,
      "543": -1.1795841968393885,
      "544": -0.020285738071830792,
      "545": -4.801385834621306,
      "546": 3.0310145110260835,
      "547": -9.480121419625108,
      "548": 0.7936640958092844,
      "549": 1.128538101465599,
      "550": 1.148962505603143,
      "551": 0.5039276456132535,
      "552": -2.67871968825198,
      "553": 4.5339153730716735,
      "554": 5.163992862232296,
      "555": 6.065842796475795,
      "556": 4.071283644434349,
      "557": 0.8785361425978083,
      "558": -4.809779408245205,
      "559": -9.612153889929209,
      "560": -8.320741292051586,
      "561": 0.725504859138285,
      "562": -2.445785707455772,
      "563": -2.356865763168774,
      "564": 3.1216146468200714,
      "565": 5.48555876024067,
      "566": -4.613656899229618,
      "567": -4.210571952547198,
      "568": -3.612367613894549,
      "569": -1.7159985211343398,
      "570": -7.1217460764612515,
      "571": -8.665011974545273,
      "572": 8.870115259473037,
      "573": 1.6210676879382981,
      "574": 4.301580682707614,
      "575": -2.2347739997220053,
      "576": 1.6029085838238293,
      "577": 0.6063666037727927,
      "578": -0.7168455985217237,
      "579": 0.7623942169947917,
      "580": 1.1545762244502347,
      "581": -2.0061228699770774,
      "582": -3.1459452634689113,
      "583": 2.617444155384258,
      "584": 13.746568950949047,
      "585": 4.671953472136779,
      "586": 5.116444605509908,
      "587": 5.532055443712347,
      "588": -1.9331163703585452,
      "589": -3.5178374941892123,
      "590": -5.770077312221146,
      "591": -3.5258217741408684,
      "592": 0.1788983286176815,
      "593": -1.3429912439874623,
      "594": 2.6946964372519333,
      "595": 9.723563885208613,
      "596": -10.392260732038888,
      "597": -1.8320573676878373,
      "598": -4.645109778038046,
      "599": 2.653668843055162,
      "600": -0.8566977632813964,
      "601": -1.9742302164248309,
      "602": -7.280941372079788,
      "603": -6.951748485466641,
      "604": 1.3197994097616652,
      "605": -4.249668169466718,
      "606": 7.21576026094191,
      "607": -0.2785034378213212,
      "608": -2.395774639885627,
      "609": 3.3683136958410236,
      "610": 2.4269995643125006,
      "611": 0.9477682329625365,
      "612": -0.6485116136125074,
      "613": 7.910822953723547,
      "614": 1.836583782762913,
      "615": 1.545121489264558,
      "616": 5.3561583767519645,
      "617": -4.578790165682676,
      "618": -7.370268043904373,
      "619": 0.983775587737176,
      "620": -15.855338350974431,
      "621": 0.5891777119273525,
      "622": 7.377277902622598,
      "623": -1.0123145298582175,
      "624": 1.6682516106792007,
      "625": 1.7965275702198142,
      "626": -3.853824472357261,
      "627": -2.275409245173605,
      "628": -5.396643681585357,
      "629": 2.7440522352254817,
      "630": 4.556399732213512,
      "631": 3.2468552076932,
      "632": -3.558129339959376,
      "633": 3.0431802977808875,
      "634": -5.782039479024922,
      "635": 7.189424517500742,
      "636": -1.225462707108971,
      "637": -7.3711161947053645,
      "638": -1.487282704905794,
      "639": 0.7910504311969382,
      "640": 2.0059612503482276,
      "641": 4.550233250286255,
      "642": 2.432375278695087,
      "643": 4.745936969038709,
      "644": -3.54424946846619,
      "645": 3.9853643680327746,
      "646": -6.480577373766866,
      "647": -5.674883928539712,
      "648": -7.7531564613100254,
      "649": 7.739025224743293,
      "650": 6.393459129091641,
      "651": 1.0364069381669752,
      "652": -1.1618202905035606,
      "653": -2.793564055619289,
      "654": -4.110650504257899,
      "655": 6.057903640453366,
      "656": -1.3448639573807062,
      "657": 1.1119673800096677,
      "658": 4.279698853159345,
      "659": -2.29787865438435,
      "660": 6.373979183451526,
      "661": -4.153207807753565,
      "662": -1.5084459539364443,
      "663": -1.2207995910884868,
      "664": -3.655568606342045,
      "665": 1.3912785468312083,
      "666": -2.441581228138888,
      "667": -7.504197140048782,
      "668": -1.7849611196227246,
      "669": -10.6245582455233,
      "670": -7.413688506240503,
      "671": 3.8327365456009788,
      "672": -1.7560620288115825,
      "673": -3.4296504436672146,
      "674": 5.531854943852774,
      "675": 5.0596142466517025,
      "676": -1.5002957028033126,
      "677": 5.4600691803332175,
      "678": 0.1346250999312753,
      "679": -3.8781153194467093,
      "680": -0.2470063529493299,
      "681": -3.2291612592015815,
      "682": -1.919818422197374,
      "683": -2.3208514544487904,
      "684": 1.9230391832868032,
      "685": -5.8955060321612915,
      "686": -3.949676865112508,
      "687": -2.527863419926844,
      "688": 9.085747356971535,
      "689": 1.0076786301047864,
      "690": -3.70739483830257,
      "691": 0.4730464485593497,
      "692": 0.52552942295961,
      "693": 0.6551483004270711,
      "694": -3.2948066121314947,
      "695": -4.579778216133285,
      "696": -0.09214431639839876,
      "697": 3.540081117965022,
      "698": -0.7011789165715564,
      "699": 12.88304101007545,
      "700": -0.371983303802873,
      "701": 1.7914630567045355,
      "702": 1.4346734240476853,
      "703": 2.293085567036847,
      "704": 2.9929012754349635,
      "705": 1.2922651263558882,
      "706": 3.739749678509009,
      "707": 9.270795438786786,
      "708": -1.3725454978646427,
      "709": 3.2175285048015745,
      "710": 0.038302808191786886,
      "711": 0.5762515045174309,
      "712": 5.895108202743163,
      "713": -9.401661557560566,
      "714": -0.3449709136319113,
      "715": -0.3812724702591155,
      "716": -0.0510401741944925,
      "717": -2.360944076040564,
      "718": 2.4909977804659253,
      "719": -10.211906741898732,
      "720": -9.165074736562993,
      "721": -0.3502789313329466,
      "722": 2.753370939162716,
      "723": -0.3260532810800805,
      "724": -8.495080803089074,
      "725": 2.5009425348930336,
      "726": 3.76095075735405,
      "727": 6.92568112047059,
      "728": 0.15978995168102647,
      "729": -3.7524160150873107,
      "730": 2.394603326126851,
      "731": 8.51531587354914,
      "732": 6.172584203286478,
      "733": -2.1435056129075356,
      "734": 8.157052205448299,
      "735": -1.596839378038014,
      "736": 1.3320634992631115,
      "737": -0.5854164651706452,
      "738": -0.9102778338232385,
      "739": 2.2076911793285086,
      "740": 1.823884815709283,
      "741": -4.400036154918305,
      "742": 1.9016269902800096,
      "743": 3.9467045241457677,
      "744": -0.7985378958369721,
      "745": -0.272368105036838,
      "746": 7.248266210887243,
      "747": 7.632844455629972,
      "748": -1.3123232147909507,
      "749": 10.928043251469688,
      "750": -14.943337324845123,
      "751": 1.1008714883824429,
      "752": 3.210544500176395,
      "753": -14.952208929268647,
      "754": -3.7800733394421817,
      "755": -3.2088341570126646,
      "756": 3.5930257819134725,
      "757": -2.6537581019441903,
      "758": 6.423311234792324,
      "759": 1.7967556104113869,
      "760": 1.3380171522929811,
      "761": -2.0395275512329696,
      "762": -3.345047821517812,
      "763": -0.48766800346518335,
      "764": -5.700310661186227,
      "765": -0.9039816164919265,
      "766": 4.067783055172787,
      "767": -5.358776428552487,
      "768": -4.138190278652743,
      "769": -4.051307070468696,
      "770": 0.34057393922137896,
      "771": 9.854850986926824,
      "772": 6.496351675289059,
      "773": 3.967590103254529,
      "774": -3.89897848362688,
      "775": 3.3554065556241346,
      "776": 1.6842106975774758,
      "777": 1.1047128420460166,
      "778": -1.283416236047782,
      "779": 6.02082662329949,
      "780": 1.147894455899777,
      "781": -3.9572047328640148,
      "782": 2.892652256118644,
      "783": 0.45599684966935145,
      "784": 5.720090181228346,
      "785": 2.100656577468476,
      "786": -6.964480587755521,
      "787": -5.543844066058475,
      "788": -4.568396611437808,
      "789": 0.7574494474388715,
      "790": -15.55722340880993,
      "791": -4.940517739190264,
      "792": -2.9106951690782603,
      "793": 4.124029578809191,
      "794": 3.3400072333854047,
      "795": -6.5157433243639105,
      "796": -2.149345980374188,
      "797": 1.1776687078230539,
      "798": 2.8744921819514277,
      "799": 13.624956971180719,
      "800": 16.049008647162434,
      "801": 6.430392492438556,
      "802": 9.546300364071579,
      "803": 2.1828903372652486,
      "804": -2.1147788075983445,
      "805": 4.908421578391545,
      "806": 2.54147622326493,
      "807": 1.95602872474273,
      "808": -9.99011114423938,
      "809": 2.007253777494335,
      "810": 0.8962593020806909,
      "811": 2.584761365131565,
      "812": -1.2745048428343537,
      "813": 5.245056209022373,
      "814": 7.382908109508302,
      "815": 3.1316470732032795,
      "816": -9.526814073842782,
      "817": -5.328620658019343,
      "818": -3.671073206678943,
      "819": -3.4281076472861063,
